%YAML:1.0
---
opencv_ml_rtrees:
   format: 3
   is_classifier: 1
   var_all: 257
   var_count: 256
   ord_var_count: 256
   cat_var_count: 1
   training_params:
      use_surrogates: 0
      max_categories: 15
      regression_accuracy: 0.
      max_depth: 10
      min_sample_count: 5
      cross_validation_folds: 0
      nactive_vars: 4
   global_var_idx: 1
   var_idx: [ 0, 1, 2, 3, 4, 5, 6, 7, 8, 9, 10, 11, 12, 13, 14, 15, 16,
       17, 18, 19, 20, 21, 22, 23, 24, 25, 26, 27, 28, 29, 30, 31, 32,
       33, 34, 35, 36, 37, 38, 39, 40, 41, 42, 43, 44, 45, 46, 47, 48,
       49, 50, 51, 52, 53, 54, 55, 56, 57, 58, 59, 60, 61, 62, 63, 64,
       65, 66, 67, 68, 69, 70, 71, 72, 73, 74, 75, 76, 77, 78, 79, 80,
       81, 82, 83, 84, 85, 86, 87, 88, 89, 90, 91, 92, 93, 94, 95, 96,
       97, 98, 99, 100, 101, 102, 103, 104, 105, 106, 107, 108, 109, 110,
       111, 112, 113, 114, 115, 116, 117, 118, 119, 120, 121, 122, 123,
       124, 125, 126, 127, 128, 129, 130, 131, 132, 133, 134, 135, 136,
       137, 138, 139, 140, 141, 142, 143, 144, 145, 146, 147, 148, 149,
       150, 151, 152, 153, 154, 155, 156, 157, 158, 159, 160, 161, 162,
       163, 164, 165, 166, 167, 168, 169, 170, 171, 172, 173, 174, 175,
       176, 177, 178, 179, 180, 181, 182, 183, 184, 185, 186, 187, 188,
       189, 190, 191, 192, 193, 194, 195, 196, 197, 198, 199, 200, 201,
       202, 203, 204, 205, 206, 207, 208, 209, 210, 211, 212, 213, 214,
       215, 216, 217, 218, 219, 220, 221, 222, 223, 224, 225, 226, 227,
       228, 229, 230, 231, 232, 233, 234, 235, 236, 237, 238, 239, 240,
       241, 242, 243, 244, 245, 246, 247, 248, 249, 250, 251, 252, 253,
       254, 255 ]
   var_type: [ 0, 0, 0, 0, 0, 0, 0, 0, 0, 0, 0, 0, 0, 0, 0, 0, 0, 0, 0,
       0, 0, 0, 0, 0, 0, 0, 0, 0, 0, 0, 0, 0, 0, 0, 0, 0, 0, 0, 0, 0, 0,
       0, 0, 0, 0, 0, 0, 0, 0, 0, 0, 0, 0, 0, 0, 0, 0, 0, 0, 0, 0, 0, 0,
       0, 0, 0, 0, 0, 0, 0, 0, 0, 0, 0, 0, 0, 0, 0, 0, 0, 0, 0, 0, 0, 0,
       0, 0, 0, 0, 0, 0, 0, 0, 0, 0, 0, 0, 0, 0, 0, 0, 0, 0, 0, 0, 0, 0,
       0, 0, 0, 0, 0, 0, 0, 0, 0, 0, 0, 0, 0, 0, 0, 0, 0, 0, 0, 0, 0, 0,
       0, 0, 0, 0, 0, 0, 0, 0, 0, 0, 0, 0, 0, 0, 0, 0, 0, 0, 0, 0, 0, 0,
       0, 0, 0, 0, 0, 0, 0, 0, 0, 0, 0, 0, 0, 0, 0, 0, 0, 0, 0, 0, 0, 0,
       0, 0, 0, 0, 0, 0, 0, 0, 0, 0, 0, 0, 0, 0, 0, 0, 0, 0, 0, 0, 0, 0,
       0, 0, 0, 0, 0, 0, 0, 0, 0, 0, 0, 0, 0, 0, 0, 0, 0, 0, 0, 0, 0, 0,
       0, 0, 0, 0, 0, 0, 0, 0, 0, 0, 0, 0, 0, 0, 0, 0, 0, 0, 0, 0, 0, 0,
       0, 0, 0, 0, 0, 0, 0, 0, 0, 0, 0, 0, 0, 0, 0, 0, 0, 1 ]
   cat_ofs: [ 0, 0, 0, 0, 0, 0, 0, 0, 0, 0, 0, 0, 0, 0, 0, 0, 0, 0, 0, 0,
       0, 0, 0, 0, 0, 0, 0, 0, 0, 0, 0, 0, 0, 0, 0, 0, 0, 0, 0, 0, 0, 0,
       0, 0, 0, 0, 0, 0, 0, 0, 0, 0, 0, 0, 0, 0, 0, 0, 0, 0, 0, 0, 0, 0,
       0, 0, 0, 0, 0, 0, 0, 0, 0, 0, 0, 0, 0, 0, 0, 0, 0, 0, 0, 0, 0, 0,
       0, 0, 0, 0, 0, 0, 0, 0, 0, 0, 0, 0, 0, 0, 0, 0, 0, 0, 0, 0, 0, 0,
       0, 0, 0, 0, 0, 0, 0, 0, 0, 0, 0, 0, 0, 0, 0, 0, 0, 0, 0, 0, 0, 0,
       0, 0, 0, 0, 0, 0, 0, 0, 0, 0, 0, 0, 0, 0, 0, 0, 0, 0, 0, 0, 0, 0,
       0, 0, 0, 0, 0, 0, 0, 0, 0, 0, 0, 0, 0, 0, 0, 0, 0, 0, 0, 0, 0, 0,
       0, 0, 0, 0, 0, 0, 0, 0, 0, 0, 0, 0, 0, 0, 0, 0, 0, 0, 0, 0, 0, 0,
       0, 0, 0, 0, 0, 0, 0, 0, 0, 0, 0, 0, 0, 0, 0, 0, 0, 0, 0, 0, 0, 0,
       0, 0, 0, 0, 0, 0, 0, 0, 0, 0, 0, 0, 0, 0, 0, 0, 0, 0, 0, 0, 0, 0,
       0, 0, 0, 0, 0, 0, 0, 0, 0, 0, 0, 0, 0, 0, 0, 0, 0, 0, 0, 0, 0, 0,
       0, 0, 0, 0, 0, 0, 0, 0, 0, 0, 0, 0, 0, 0, 0, 0, 0, 0, 0, 0, 0, 0,
       0, 0, 0, 0, 0, 0, 0, 0, 0, 0, 0, 0, 0, 0, 0, 0, 0, 0, 0, 0, 0, 0,
       0, 0, 0, 0, 0, 0, 0, 0, 0, 0, 0, 0, 0, 0, 0, 0, 0, 0, 0, 0, 0, 0,
       0, 0, 0, 0, 0, 0, 0, 0, 0, 0, 0, 0, 0, 0, 0, 0, 0, 0, 0, 0, 0, 0,
       0, 0, 0, 0, 0, 0, 0, 0, 0, 0, 0, 0, 0, 0, 0, 0, 0, 0, 0, 0, 0, 0,
       0, 0, 0, 0, 0, 0, 0, 0, 0, 0, 0, 0, 0, 0, 0, 0, 0, 0, 0, 0, 0, 0,
       0, 0, 0, 0, 0, 0, 0, 0, 0, 0, 0, 0, 0, 0, 0, 0, 0, 0, 0, 0, 0, 0,
       0, 0, 0, 0, 0, 0, 0, 0, 0, 0, 0, 0, 0, 0, 0, 0, 0, 0, 0, 0, 0, 0,
       0, 0, 0, 0, 0, 0, 0, 0, 0, 0, 0, 0, 0, 0, 0, 0, 0, 0, 0, 0, 0, 0,
       0, 0, 0, 0, 0, 0, 0, 0, 0, 0, 0, 0, 0, 0, 0, 0, 0, 0, 0, 0, 0, 0,
       0, 0, 0, 0, 0, 0, 0, 0, 0, 0, 0, 0, 0, 0, 0, 0, 0, 0, 0, 0, 0, 0,
       0, 0, 0, 0, 0, 0, 0, 0 ]
   class_labels: [ 49, 50, 51, 52, 53, 54, 55, 56 ]
   missing_subst: [ 0., 0., 0., 0., 0., 0., 0., 0., 0., 0., 0., 0., 0.,
       0., 0., 0., 0., 0., 0., 0., 0., 0., 0., 0., 0., 0., 0., 0., 0.,
       0., 0., 0., 0., 0., 0., 0., 0., 0., 0., 0., 0., 0., 0., 0., 0.,
       0., 0., 0., 0., 0., 0., 0., 0., 0., 0., 0., 0., 0., 0., 0., 0.,
       0., 0., 0., 0., 0., 0., 0., 0., 0., 0., 0., 0., 0., 0., 0., 0.,
       0., 0., 0., 0., 0., 0., 0., 0., 0., 0., 0., 0., 0., 0., 0., 0.,
       0., 0., 0., 0., 0., 0., 0., 0., 0., 0., 0., 0., 0., 0., 0., 0.,
       0., 0., 0., 0., 0., 0., 0., 0., 0., 0., 0., 0., 0., 0., 0., 0.,
       0., 0., 0., 0., 0., 0., 0., 0., 0., 0., 0., 0., 0., 0., 0., 0.,
       0., 0., 0., 0., 0., 0., 0., 0., 0., 0., 0., 0., 0., 0., 0., 0.,
       0., 0., 0., 0., 0., 0., 0., 0., 0., 0., 0., 0., 0., 0., 0., 0.,
       0., 0., 0., 0., 0., 0., 0., 0., 0., 0., 0., 0., 0., 0., 0., 0.,
       0., 0., 0., 0., 0., 0., 0., 0., 0., 0., 0., 0., 0., 0., 0., 0.,
       0., 0., 0., 0., 0., 0., 0., 0., 0., 0., 0., 0., 0., 0., 0., 0.,
       0., 0., 0., 0., 0., 0., 0., 0., 0., 0., 0., 0., 0., 0., 0., 0.,
       0., 0., 0., 0., 0., 0., 0., 0., 0., 0., 0., 0., 0., 0., 0., 0.,
       0., 0., 0., 0. ]
   oob_error: 9.4876660341555973e-03
   var_importance: [ 3.50109418e-03, 2.79414258e-03, 3.09712184e-03,
       3.93873127e-03, 3.60208726e-03, 2.79414258e-03, 2.86147138e-03,
       2.82780686e-03, 4.17438149e-03, 2.82780686e-03, 3.29910801e-03,
       2.76047806e-03, 2.82780686e-03, 2.82780686e-03, 3.06345755e-03,
       3.16445064e-03, 3.02979304e-03, 2.86147138e-03, 2.79414258e-03,
       3.97239532e-03, 3.97239532e-03, 3.36643681e-03, 3.16445064e-03,
       3.46742989e-03, 3.13078612e-03, 2.92879995e-03, 2.92879995e-03,
       3.66941607e-03, 6.02592202e-03, 3.87140224e-03, 3.29910801e-03,
       3.02979304e-03, 3.23177921e-03, 2.79414258e-03, 3.13078612e-03,
       4.14071744e-03, 3.13078612e-03, 5.41996304e-03, 3.53475870e-03,
       2.89513567e-03, 4.81400453e-03, 4.14071744e-03, 2.86147138e-03,
       3.46742989e-03, 3.26544372e-03, 3.80407367e-03, 2.79414258e-03,
       2.86147138e-03, 2.79414258e-03, 3.13078612e-03, 3.36643681e-03,
       3.36643681e-03, 3.56842298e-03, 2.79414258e-03, 4.27537458e-03,
       4.78034047e-03, 4.67934692e-03, 3.23177921e-03, 4.03972436e-03,
       6.05958607e-03, 3.02979304e-03, 4.44369670e-03, 2.89513567e-03,
       2.82780686e-03, 2.79414258e-03, 2.82780686e-03, 3.19811492e-03,
       4.03972436e-03, 8.68540723e-03, 6.93485979e-03, 4.34270361e-03,
       2.99612875e-03, 7.13684596e-03, 4.81400453e-03, 2.86147138e-03,
       2.96246447e-03, 1.28261242e-02, 3.13078612e-03, 3.70308058e-03,
       2.86147138e-03, 2.79414258e-03, 2.79414258e-03, 2.79414258e-03,
       4.41003218e-03, 6.73287362e-03, 3.13078612e-03, 3.56842298e-03,
       3.40010109e-03, 9.93098877e-03, 4.17438149e-03, 5.89126442e-03,
       3.97239532e-03, 5.85759990e-03, 3.43376561e-03, 2.79414258e-03,
       2.82780686e-03, 2.82780686e-03, 2.86147138e-03, 2.82780686e-03,
       2.92879995e-03, 6.02592202e-03, 5.52095613e-03, 5.38629899e-03,
       3.77040915e-03, 4.14071744e-03, 2.82780686e-03, 3.13078612e-03,
       3.50109418e-03, 2.82780686e-03, 3.90506675e-03, 2.86147138e-03,
       2.79414258e-03, 2.96246447e-03, 3.26544372e-03, 2.79414258e-03,
       3.29910801e-03, 5.85759990e-03, 2.86147138e-03, 4.00605984e-03,
       3.23177921e-03, 2.92879995e-03, 4.84766904e-03, 3.16445064e-03,
       3.33277253e-03, 2.89513567e-03, 3.36643681e-03, 2.79414258e-03,
       2.79414258e-03, 2.79414258e-03, 2.79414258e-03, 2.79414258e-03,
       3.46742989e-03, 3.60208726e-03, 4.81400453e-03, 3.33277253e-03,
       3.13078612e-03, 3.09712184e-03, 2.96246447e-03, 2.79414258e-03,
       4.30903910e-03, 2.99612875e-03, 3.40010109e-03, 2.79414258e-03,
       2.79414258e-03, 2.96246447e-03, 3.02979304e-03, 2.82780686e-03,
       3.02979304e-03, 3.93873127e-03, 1.52499583e-02, 7.97845516e-03,
       3.33277253e-03, 3.77040915e-03, 5.55462064e-03, 2.92879995e-03,
       3.13078612e-03, 4.67934692e-03, 2.79414258e-03, 2.99612875e-03,
       2.79414258e-03, 2.82780686e-03, 2.99612875e-03, 2.79414258e-03,
       2.86147138e-03, 4.27537458e-03, 5.21797687e-03, 5.41996304e-03,
       2.79414258e-03, 3.29910801e-03, 7.03585288e-03, 3.19811492e-03,
       4.07338841e-03, 4.64568287e-03, 3.66941607e-03, 3.09712184e-03,
       2.79414258e-03, 3.63575178e-03, 3.13078612e-03, 4.67934692e-03,
       2.92879995e-03, 3.29910801e-03, 3.66941607e-03, 2.79414258e-03,
       3.02979304e-03, 3.36643681e-03, 5.45362756e-03, 6.02592202e-03,
       5.04965521e-03, 1.32637611e-02, 3.26544372e-03, 3.46742989e-03,
       3.26544372e-03, 2.79414258e-03, 2.79414258e-03, 7.06951739e-03,
       3.23177921e-03, 1.43073564e-02, 8.58441368e-03, 6.83386670e-03,
       3.33277253e-03, 4.27537458e-03, 3.73674487e-03, 2.89513567e-03,
       5.68927824e-03, 3.80407367e-03, 3.60208726e-03, 3.02979304e-03,
       3.50109418e-03, 2.99612875e-03, 3.66941607e-03, 4.14071744e-03,
       3.23177921e-03, 7.74280448e-03, 4.67934692e-03, 7.33883213e-03,
       4.27537458e-03, 3.83773795e-03, 3.13078612e-03, 2.99612875e-03,
       3.63575178e-03, 1.07389335e-02, 3.73674487e-03, 2.96246447e-03,
       2.86147138e-03, 3.46742989e-03, 3.56842298e-03, 3.50109418e-03,
       4.37636767e-03, 4.10705293e-03, 3.40010109e-03, 2.86147138e-03,
       2.89513567e-03, 3.36643681e-03, 2.99612875e-03, 3.97239532e-03,
       5.04965521e-03, 5.18431282e-03, 2.79414258e-03, 3.36643681e-03,
       2.92879995e-03, 3.02979304e-03, 2.92879995e-03, 2.96246447e-03,
       4.64568287e-03, 7.87746254e-03, 3.13078612e-03, 3.09712184e-03,
       3.53475870e-03, 2.99612875e-03, 3.19811492e-03, 3.77040915e-03,
       4.71301144e-03, 2.92879995e-03, 3.40010109e-03, 2.79414258e-03,
       2.89513567e-03 ]
   ntrees: 9
   trees:
      -
         nodes:
            -
               depth: 0
               value: 56.
               norm_class_idx: 7
               splits:
                  - { var:244, quality:2.6472125244140625e+02,
                      le:5.0000000000000000e-01 }
            -
               depth: 1
               value: 49.
               norm_class_idx: 0
               splits:
                  - { var:194, quality:2.1034828186035156e+02,
                      le:5.0000000000000000e-01 }
            -
               depth: 2
               value: 49.
               norm_class_idx: 0
               splits:
                  - { var:3, quality:1.7875483703613281e+02,
                      le:5.0000000000000000e-01 }
            -
               depth: 3
               value: 49.
               norm_class_idx: 0
               splits:
                  - { var:164, quality:1.9550767517089844e+02,
                      le:5.0000000000000000e-01 }
            -
               depth: 4
               value: 49.
               norm_class_idx: 0
               splits:
                  - { var:92, quality:2.0403729248046875e+02,
                      le:5.0000000000000000e-01 }
            -
               depth: 5
               value: 49.
               norm_class_idx: 0
               splits:
                  - { var:156, quality:2.2776318359375000e+02,
                      le:5.0000000000000000e-01 }
            -
               depth: 6
               value: 49.
               norm_class_idx: 0
            -
               depth: 6
               value: 53.
               norm_class_idx: 4
               splits:
                  - { var:183, quality:3.2068965911865234e+01,
                      le:5.0000000000000000e-01 }
            -
               depth: 7
               value: 53.
               norm_class_idx: 4
               splits:
                  - { var:89, quality:2.7666666030883789e+01,
                      le:5.0000000000000000e-01 }
            -
               depth: 8
               value: 53.
               norm_class_idx: 4
            -
               depth: 8
               value: 53.
               norm_class_idx: 4
            -
               depth: 7
               value: 54.
               norm_class_idx: 5
            -
               depth: 5
               value: 50.
               norm_class_idx: 1
               splits:
                  - { var:95, quality:2.3632652282714844e+01,
                      le:5.0000000000000000e-01 }
            -
               depth: 6
               value: 51.
               norm_class_idx: 2
               splits:
                  - { var:221, quality:3.3058822631835938e+01,
                      le:5.0000000000000000e-01 }
            -
               depth: 7
               value: 50.
               norm_class_idx: 1
            -
               depth: 7
               value: 51.
               norm_class_idx: 2
            -
               depth: 6
               value: 50.
               norm_class_idx: 1
            -
               depth: 4
               value: 56.
               norm_class_idx: 7
               splits:
                  - { var:119, quality:5.0146118164062500e+01,
                      le:5.0000000000000000e-01 }
            -
               depth: 5
               value: 52.
               norm_class_idx: 3
               splits:
                  - { var:92, quality:1.6799999237060547e+01,
                      le:5.0000000000000000e-01 }
            -
               depth: 6
               value: 54.
               norm_class_idx: 5
               splits:
                  - { var:216, quality:10., le:5.0000000000000000e-01 }
            -
               depth: 7
               value: 54.
               norm_class_idx: 5
            -
               depth: 7
               value: 52.
               norm_class_idx: 3
            -
               depth: 6
               value: 52.
               norm_class_idx: 3
            -
               depth: 5
               value: 56.
               norm_class_idx: 7
               splits:
                  - { var:115, quality:5.1644069671630859e+01,
                      le:5.0000000000000000e-01 }
            -
               depth: 6
               value: 56.
               norm_class_idx: 7
               splits:
                  - { var:22, quality:3.9340427398681641e+01,
                      le:5.0000000000000000e-01 }
            -
               depth: 7
               value: 56.
               norm_class_idx: 7
            -
               depth: 7
               value: 56.
               norm_class_idx: 7
            -
               depth: 6
               value: 54.
               norm_class_idx: 5
            -
               depth: 3
               value: 53.
               norm_class_idx: 4
               splits:
                  - { var:204, quality:9.4860725402832031e+01,
                      le:5.0000000000000000e-01 }
            -
               depth: 4
               value: 55.
               norm_class_idx: 6
               splits:
                  - { var:247, quality:5.7533332824707031e+01,
                      le:5.0000000000000000e-01 }
            -
               depth: 5
               value: 49.
               norm_class_idx: 0
            -
               depth: 5
               value: 55.
               norm_class_idx: 6
               splits:
                  - { var:75, quality:5.6535713195800781e+01,
                      le:5.0000000000000000e-01 }
            -
               depth: 6
               value: 49.
               norm_class_idx: 0
            -
               depth: 6
               value: 55.
               norm_class_idx: 6
               splits:
                  - { var:50, quality:55., le:5.0000000000000000e-01 }
            -
               depth: 7
               value: 55.
               norm_class_idx: 6
            -
               depth: 7
               value: 49.
               norm_class_idx: 0
            -
               depth: 4
               value: 53.
               norm_class_idx: 4
               splits:
                  - { var:61, quality:7.1290252685546875e+01,
                      le:5.0000000000000000e-01 }
            -
               depth: 5
               value: 53.
               norm_class_idx: 4
               splits:
                  - { var:83, quality:6.1736362457275391e+01,
                      le:5.0000000000000000e-01 }
            -
               depth: 6
               value: 54.
               norm_class_idx: 5
               splits:
                  - { var:104, quality:1.6888889312744141e+01,
                      le:5.0000000000000000e-01 }
            -
               depth: 7
               value: 54.
               norm_class_idx: 5
            -
               depth: 7
               value: 51.
               norm_class_idx: 2
               splits:
                  - { var:21, quality:7.2500000000000000e+00,
                      le:5.0000000000000000e-01 }
            -
               depth: 8
               value: 49.
               norm_class_idx: 0
            -
               depth: 8
               value: 51.
               norm_class_idx: 2
            -
               depth: 6
               value: 53.
               norm_class_idx: 4
               splits:
                  - { var:232, quality:55., le:5.0000000000000000e-01 }
            -
               depth: 7
               value: 53.
               norm_class_idx: 4
            -
               depth: 7
               value: 56.
               norm_class_idx: 7
            -
               depth: 5
               value: 51.
               norm_class_idx: 2
               splits:
                  - { var:63, quality:3.1842105865478516e+01,
                      le:5.0000000000000000e-01 }
            -
               depth: 6
               value: 51.
               norm_class_idx: 2
               splits:
                  - { var:168, quality:3.2133335113525391e+01,
                      le:5.0000000000000000e-01 }
            -
               depth: 7
               value: 51.
               norm_class_idx: 2
            -
               depth: 7
               value: 51.
               norm_class_idx: 2
               splits:
                  - { var:14, quality:15., le:5.0000000000000000e-01 }
            -
               depth: 8
               value: 51.
               norm_class_idx: 2
            -
               depth: 8
               value: 53.
               norm_class_idx: 4
            -
               depth: 6
               value: 50.
               norm_class_idx: 1
            -
               depth: 2
               value: 52.
               norm_class_idx: 3
               splits:
                  - { var:50, quality:8.6866668701171875e+01,
                      le:5.0000000000000000e-01 }
            -
               depth: 3
               value: 52.
               norm_class_idx: 3
               splits:
                  - { var:155, quality:1.0302127838134766e+02,
                      le:5.0000000000000000e-01 }
            -
               depth: 4
               value: 50.
               norm_class_idx: 1
            -
               depth: 4
               value: 52.
               norm_class_idx: 3
               splits:
                  - { var:6, quality:9.2333335876464844e+01,
                      le:5.0000000000000000e-01 }
            -
               depth: 5
               value: 52.
               norm_class_idx: 3
            -
               depth: 5
               value: 52.
               norm_class_idx: 3
               splits:
                  - { var:96, quality:4.6666665077209473e+00,
                      le:5.0000000000000000e-01 }
            -
               depth: 6
               value: 52.
               norm_class_idx: 3
            -
               depth: 6
               value: 52.
               norm_class_idx: 3
            -
               depth: 3
               value: 56.
               norm_class_idx: 7
               splits:
                  - { var:47, quality:6., le:5.0000000000000000e-01 }
            -
               depth: 4
               value: 52.
               norm_class_idx: 3
            -
               depth: 4
               value: 56.
               norm_class_idx: 7
            -
               depth: 1
               value: 56.
               norm_class_idx: 7
               splits:
                  - { var:185, quality:1.5326307678222656e+02,
                      le:5.0000000000000000e-01 }
            -
               depth: 2
               value: 56.
               norm_class_idx: 7
               splits:
                  - { var:188, quality:2.1400900268554688e+02,
                      le:5.0000000000000000e-01 }
            -
               depth: 3
               value: 50.
               norm_class_idx: 1
               splits:
                  - { var:149, quality:9.8844154357910156e+01,
                      le:5.0000000000000000e-01 }
            -
               depth: 4
               value: 50.
               norm_class_idx: 1
               splits:
                  - { var:213, quality:6.4420288085937500e+01,
                      le:5.0000000000000000e-01 }
            -
               depth: 5
               value: 55.
               norm_class_idx: 6
            -
               depth: 5
               value: 50.
               norm_class_idx: 1
               splits:
                  - { var:77, quality:5.9837036132812500e+01,
                      le:5.0000000000000000e-01 }
            -
               depth: 6
               value: 50.
               norm_class_idx: 1
            -
               depth: 6
               value: 50.
               norm_class_idx: 1
               splits:
                  - { var:140, quality:9.5454549789428711e+00,
                      le:5.0000000000000000e-01 }
            -
               depth: 7
               value: 55.
               norm_class_idx: 6
               splits:
                  - { var:108, quality:8.1428575515747070e+00,
                      le:5.0000000000000000e-01 }
            -
               depth: 8
               value: 55.
               norm_class_idx: 6
            -
               depth: 8
               value: 50.
               norm_class_idx: 1
               splits:
                  - { var:119, quality:5.3333334922790527e+00,
                      le:5.0000000000000000e-01 }
            -
               depth: 9
               value: 50.
               norm_class_idx: 1
            -
               depth: 9
               value: 55.
               norm_class_idx: 6
            -
               depth: 7
               value: 50.
               norm_class_idx: 1
            -
               depth: 4
               value: 50.
               norm_class_idx: 1
            -
               depth: 3
               value: 56.
               norm_class_idx: 7
               splits:
                  - { var:100, quality:1.9295567321777344e+02,
                      le:5.0000000000000000e-01 }
            -
               depth: 4
               value: 51.
               norm_class_idx: 2
               splits:
                  - { var:10, quality:8.1407409667968750e+01,
                      le:5.0000000000000000e-01 }
            -
               depth: 5
               value: 53.
               norm_class_idx: 4
               splits:
                  - { var:238, quality:6., le:5.0000000000000000e-01 }
            -
               depth: 6
               value: 51.
               norm_class_idx: 2
            -
               depth: 6
               value: 53.
               norm_class_idx: 4
            -
               depth: 5
               value: 51.
               norm_class_idx: 2
               splits:
                  - { var:224, quality:80., le:5.0000000000000000e-01 }
            -
               depth: 6
               value: 51.
               norm_class_idx: 2
            -
               depth: 6
               value: 50.
               norm_class_idx: 1
            -
               depth: 4
               value: 56.
               norm_class_idx: 7
               splits:
                  - { var:0, quality:1.3060910034179688e+02,
                      le:5.0000000000000000e-01 }
            -
               depth: 5
               value: 56.
               norm_class_idx: 7
               splits:
                  - { var:113, quality:9.9243476867675781e+01,
                      le:5.0000000000000000e-01 }
            -
               depth: 6
               value: 56.
               norm_class_idx: 7
               splits:
                  - { var:226, quality:1.1261125946044922e+02,
                      le:5.0000000000000000e-01 }
            -
               depth: 7
               value: 53.
               norm_class_idx: 4
               splits:
                  - { var:165, quality:1.1263365936279297e+02,
                      le:5.0000000000000000e-01 }
            -
               depth: 8
               value: 53.
               norm_class_idx: 4
               splits:
                  - { var:33, quality:7.3609756469726562e+01,
                      le:5.0000000000000000e-01 }
            -
               depth: 9
               value: 53.
               norm_class_idx: 4
               splits:
                  - { var:206, quality:7.3785713195800781e+01,
                      le:5.0000000000000000e-01 }
            -
               depth: 10
               value: 53.
               norm_class_idx: 4
            -
               depth: 10
               value: 53.
               norm_class_idx: 4
            -
               depth: 9
               value: 53.
               norm_class_idx: 4
            -
               depth: 8
               value: 56.
               norm_class_idx: 7
               splits:
                  - { var:60, quality:64., le:5.0000000000000000e-01 }
            -
               depth: 9
               value: 54.
               norm_class_idx: 5
            -
               depth: 9
               value: 56.
               norm_class_idx: 7
            -
               depth: 7
               value: 56.
               norm_class_idx: 7
               splits:
                  - { var:87, quality:6.0707843780517578e+01,
                      le:5.0000000000000000e-01 }
            -
               depth: 8
               value: 56.
               norm_class_idx: 7
               splits:
                  - { var:94, quality:5.6390243530273438e+01,
                      le:5.0000000000000000e-01 }
            -
               depth: 9
               value: 56.
               norm_class_idx: 7
               splits:
                  - { var:170, quality:3.1666666030883789e+01,
                      le:5.0000000000000000e-01 }
            -
               depth: 10
               value: 56.
               norm_class_idx: 7
            -
               depth: 10
               value: 56.
               norm_class_idx: 7
            -
               depth: 9
               value: 56.
               norm_class_idx: 7
            -
               depth: 8
               value: 53.
               norm_class_idx: 4
               splits:
                  - { var:62, quality:1.0222222328186035e+01,
                      le:5.0000000000000000e-01 }
            -
               depth: 9
               value: 53.
               norm_class_idx: 4
            -
               depth: 9
               value: 56.
               norm_class_idx: 7
               splits:
                  - { var:115, quality:6., le:5.0000000000000000e-01 }
            -
               depth: 10
               value: 56.
               norm_class_idx: 7
            -
               depth: 10
               value: 52.
               norm_class_idx: 3
            -
               depth: 6
               value: 54.
               norm_class_idx: 5
               splits:
                  - { var:137, quality:15., le:5.0000000000000000e-01 }
            -
               depth: 7
               value: 53.
               norm_class_idx: 4
            -
               depth: 7
               value: 54.
               norm_class_idx: 5
            -
               depth: 5
               value: 56.
               norm_class_idx: 7
               splits:
                  - { var:223, quality:5.6144260406494141e+01,
                      le:5.0000000000000000e-01 }
            -
               depth: 6
               value: 54.
               norm_class_idx: 5
               splits:
                  - { var:174, quality:3.6571430206298828e+01,
                      le:5.0000000000000000e-01 }
            -
               depth: 7
               value: 54.
               norm_class_idx: 5
               splits:
                  - { var:52, quality:3.6210803985595703e+01,
                      le:5.0000000000000000e-01 }
            -
               depth: 8
               value: 56.
               norm_class_idx: 7
               splits:
                  - { var:103, quality:1.6333333969116211e+01,
                      le:5.0000000000000000e-01 }
            -
               depth: 9
               value: 54.
               norm_class_idx: 5
               splits:
                  - { var:19, quality:8.5714282989501953e+00,
                      le:5.0000000000000000e-01 }
            -
               depth: 10
               value: 54.
               norm_class_idx: 5
            -
               depth: 10
               value: 54.
               norm_class_idx: 5
            -
               depth: 9
               value: 56.
               norm_class_idx: 7
            -
               depth: 8
               value: 54.
               norm_class_idx: 5
               splits:
                  - { var:147, quality:33., le:5.0000000000000000e-01 }
            -
               depth: 9
               value: 56.
               norm_class_idx: 7
            -
               depth: 9
               value: 54.
               norm_class_idx: 5
            -
               depth: 7
               value: 56.
               norm_class_idx: 7
            -
               depth: 6
               value: 56.
               norm_class_idx: 7
               splits:
                  - { var:17, quality:2.4379310607910156e+01,
                      le:5.0000000000000000e-01 }
            -
               depth: 7
               value: 56.
               norm_class_idx: 7
            -
               depth: 7
               value: 56.
               norm_class_idx: 7
               splits:
                  - { var:117, quality:29., le:5.0000000000000000e-01 }
            -
               depth: 8
               value: 53.
               norm_class_idx: 4
            -
               depth: 8
               value: 56.
               norm_class_idx: 7
            -
               depth: 2
               value: 50.
               norm_class_idx: 1
               splits:
                  - { var:104, quality:7.3583686828613281e+01,
                      le:5.0000000000000000e-01 }
            -
               depth: 3
               value: 50.
               norm_class_idx: 1
               splits:
                  - { var:106, quality:6.5345664978027344e+01,
                      le:5.0000000000000000e-01 }
            -
               depth: 4
               value: 56.
               norm_class_idx: 7
               splits:
                  - { var:66, quality:2.3468013763427734e+01,
                      le:5.0000000000000000e-01 }
            -
               depth: 5
               value: 53.
               norm_class_idx: 4
            -
               depth: 5
               value: 56.
               norm_class_idx: 7
               splits:
                  - { var:17, quality:1.7095237731933594e+01,
                      le:5.0000000000000000e-01 }
            -
               depth: 6
               value: 56.
               norm_class_idx: 7
               splits:
                  - { var:165, quality:21., le:5.0000000000000000e-01 }
            -
               depth: 7
               value: 53.
               norm_class_idx: 4
            -
               depth: 7
               value: 56.
               norm_class_idx: 7
            -
               depth: 6
               value: 56.
               norm_class_idx: 7
            -
               depth: 4
               value: 50.
               norm_class_idx: 1
               splits:
                  - { var:213, quality:5.5826087951660156e+01,
                      le:5.0000000000000000e-01 }
            -
               depth: 5
               value: 56.
               norm_class_idx: 7
            -
               depth: 5
               value: 50.
               norm_class_idx: 1
               splits:
                  - { var:68, quality:5.7682540893554688e+01,
                      le:5.0000000000000000e-01 }
            -
               depth: 6
               value: 50.
               norm_class_idx: 1
               splits:
                  - { var:87, quality:5.7225807189941406e+01,
                      le:5.0000000000000000e-01 }
            -
               depth: 7
               value: 50.
               norm_class_idx: 1
               splits:
                  - { var:37, quality:5.6399108886718750e+01,
                      le:5.0000000000000000e-01 }
            -
               depth: 8
               value: 50.
               norm_class_idx: 1
               splits:
                  - { var:201, quality:20., le:5.0000000000000000e-01 }
            -
               depth: 9
               value: 50.
               norm_class_idx: 1
            -
               depth: 9
               value: 50.
               norm_class_idx: 1
               splits:
                  - { var:228, quality:8., le:5.0000000000000000e-01 }
            -
               depth: 10
               value: 51.
               norm_class_idx: 2
            -
               depth: 10
               value: 50.
               norm_class_idx: 1
            -
               depth: 8
               value: 50.
               norm_class_idx: 1
               splits:
                  - { var:62, quality:3.7105262756347656e+01,
                      le:5.0000000000000000e-01 }
            -
               depth: 9
               value: 50.
               norm_class_idx: 1
            -
               depth: 9
               value: 50.
               norm_class_idx: 1
               splits:
                  - { var:1, quality:1.7666666030883789e+01,
                      le:5.0000000000000000e-01 }
            -
               depth: 10
               value: 50.
               norm_class_idx: 1
            -
               depth: 10
               value: 50.
               norm_class_idx: 1
            -
               depth: 7
               value: 52.
               norm_class_idx: 3
            -
               depth: 6
               value: 56.
               norm_class_idx: 7
               splits:
                  - { var:105, quality:4.6666665077209473e+00,
                      le:5.0000000000000000e-01 }
            -
               depth: 7
               value: 56.
               norm_class_idx: 7
            -
               depth: 7
               value: 55.
               norm_class_idx: 6
            -
               depth: 3
               value: 55.
               norm_class_idx: 6
               splits:
                  - { var:215, quality:5.9761905670166016e+01,
                      le:5.0000000000000000e-01 }
            -
               depth: 4
               value: 51.
               norm_class_idx: 2
            -
               depth: 4
               value: 55.
               norm_class_idx: 6
               splits:
                  - { var:219, quality:42., le:5.0000000000000000e-01 }
            -
               depth: 5
               value: 55.
               norm_class_idx: 6
            -
               depth: 5
               value: 52.
               norm_class_idx: 3
      -
         nodes:
            -
               depth: 0
               value: 49.
               norm_class_idx: 0
               splits:
                  - { var:153, quality:2.2920384216308594e+02,
                      le:5.0000000000000000e-01 }
            -
               depth: 1
               value: 52.
               norm_class_idx: 3
               splits:
                  - { var:214, quality:8.5314598083496094e+01,
                      le:5.0000000000000000e-01 }
            -
               depth: 2
               value: 56.
               norm_class_idx: 7
               splits:
                  - { var:97, quality:5.7912620544433594e+01,
                      le:5.0000000000000000e-01 }
            -
               depth: 3
               value: 56.
               norm_class_idx: 7
               splits:
                  - { var:184, quality:5.3359550476074219e+01,
                      le:5.0000000000000000e-01 }
            -
               depth: 4
               value: 56.
               norm_class_idx: 7
               splits:
                  - { var:180, quality:5.0629936218261719e+01,
                      le:5.0000000000000000e-01 }
            -
               depth: 5
               value: 53.
               norm_class_idx: 4
               splits:
                  - { var:29, quality:2.2152940750122070e+01,
                      le:5.0000000000000000e-01 }
            -
               depth: 6
               value: 53.
               norm_class_idx: 4
               splits:
                  - { var:10, quality:16., le:5.0000000000000000e-01 }
            -
               depth: 7
               value: 53.
               norm_class_idx: 4
            -
               depth: 7
               value: 51.
               norm_class_idx: 2
            -
               depth: 6
               value: 56.
               norm_class_idx: 7
               splits:
                  - { var:207, quality:14., le:5.0000000000000000e-01 }
            -
               depth: 7
               value: 53.
               norm_class_idx: 4
            -
               depth: 7
               value: 56.
               norm_class_idx: 7
               splits:
                  - { var:87, quality:16., le:5.0000000000000000e-01 }
            -
               depth: 8
               value: 50.
               norm_class_idx: 1
            -
               depth: 8
               value: 56.
               norm_class_idx: 7
            -
               depth: 5
               value: 56.
               norm_class_idx: 7
               splits:
                  - { var:163, quality:3.7555557250976562e+01,
                      le:5.0000000000000000e-01 }
            -
               depth: 6
               value: 56.
               norm_class_idx: 7
            -
               depth: 6
               value: 56.
               norm_class_idx: 7
               splits:
                  - { var:44, quality:2.2761289596557617e+01,
                      le:5.0000000000000000e-01 }
            -
               depth: 7
               value: 54.
               norm_class_idx: 5
            -
               depth: 7
               value: 56.
               norm_class_idx: 7
               splits:
                  - { var:241, quality:2.1666666030883789e+01,
                      le:5.0000000000000000e-01 }
            -
               depth: 8
               value: 56.
               norm_class_idx: 7
               splits:
                  - { var:74, quality:1.4538461685180664e+01,
                      le:5.0000000000000000e-01 }
            -
               depth: 9
               value: 54.
               norm_class_idx: 5
               splits:
                  - { var:166, quality:9.8888893127441406e+00,
                      le:5.0000000000000000e-01 }
            -
               depth: 10
               value: 54.
               norm_class_idx: 5
            -
               depth: 10
               value: 56.
               norm_class_idx: 7
            -
               depth: 9
               value: 56.
               norm_class_idx: 7
            -
               depth: 8
               value: 56.
               norm_class_idx: 7
            -
               depth: 4
               value: 52.
               norm_class_idx: 3
            -
               depth: 3
               value: 53.
               norm_class_idx: 4
            -
               depth: 2
               value: 52.
               norm_class_idx: 3
               splits:
                  - { var:44, quality:6.3938953399658203e+01,
                      le:5.0000000000000000e-01 }
            -
               depth: 3
               value: 54.
               norm_class_idx: 5
               splits:
                  - { var:72, quality:3.4200000762939453e+01,
                      le:5.0000000000000000e-01 }
            -
               depth: 4
               value: 54.
               norm_class_idx: 5
               splits:
                  - { var:255, quality:2.9916666030883789e+01,
                      le:5.0000000000000000e-01 }
            -
               depth: 5
               value: 54.
               norm_class_idx: 5
               splits:
                  - { var:25, quality:32., le:5.0000000000000000e-01 }
            -
               depth: 6
               value: 56.
               norm_class_idx: 7
            -
               depth: 6
               value: 54.
               norm_class_idx: 5
            -
               depth: 5
               value: 56.
               norm_class_idx: 7
            -
               depth: 4
               value: 52.
               norm_class_idx: 3
            -
               depth: 3
               value: 52.
               norm_class_idx: 3
               splits:
                  - { var:229, quality:4.9428569793701172e+01,
                      le:5.0000000000000000e-01 }
            -
               depth: 4
               value: 52.
               norm_class_idx: 3
            -
               depth: 4
               value: 52.
               norm_class_idx: 3
               splits:
                  - { var:233, quality:2.5866666793823242e+01,
                      le:5.0000000000000000e-01 }
            -
               depth: 5
               value: 54.
               norm_class_idx: 5
               splits:
                  - { var:91, quality:8., le:5.0000000000000000e-01 }
            -
               depth: 6
               value: 54.
               norm_class_idx: 5
            -
               depth: 6
               value: 52.
               norm_class_idx: 3
            -
               depth: 5
               value: 52.
               norm_class_idx: 3
               splits:
                  - { var:203, quality:2.8266666412353516e+01,
                      le:5.0000000000000000e-01 }
            -
               depth: 6
               value: 50.
               norm_class_idx: 1
            -
               depth: 6
               value: 52.
               norm_class_idx: 3
               splits:
                  - { var:24, quality:2.0571428298950195e+01,
                      le:5.0000000000000000e-01 }
            -
               depth: 7
               value: 50.
               norm_class_idx: 1
            -
               depth: 7
               value: 52.
               norm_class_idx: 3
               splits:
                  - { var:103, quality:25., le:5.0000000000000000e-01 }
            -
               depth: 8
               value: 50.
               norm_class_idx: 1
               splits:
                  - { var:160, quality:8., le:5.0000000000000000e-01 }
            -
               depth: 9
               value: 50.
               norm_class_idx: 1
            -
               depth: 9
               value: 52.
               norm_class_idx: 3
            -
               depth: 8
               value: 52.
               norm_class_idx: 3
            -
               depth: 1
               value: 49.
               norm_class_idx: 0
               splits:
                  - { var:212, quality:2.7622943115234375e+02,
                      le:5.0000000000000000e-01 }
            -
               depth: 2
               value: 49.
               norm_class_idx: 0
               splits:
                  - { var:59, quality:2.5405339050292969e+02,
                      le:5.0000000000000000e-01 }
            -
               depth: 3
               value: 49.
               norm_class_idx: 0
               splits:
                  - { var:88, quality:2.7182006835937500e+02,
                      le:5.0000000000000000e-01 }
            -
               depth: 4
               value: 53.
               norm_class_idx: 4
               splits:
                  - { var:82, quality:9.1844718933105469e+01,
                      le:5.0000000000000000e-01 }
            -
               depth: 5
               value: 53.
               norm_class_idx: 4
               splits:
                  - { var:214, quality:92., le:5.0000000000000000e-01 }
            -
               depth: 6
               value: 53.
               norm_class_idx: 4
            -
               depth: 6
               value: 54.
               norm_class_idx: 5
            -
               depth: 5
               value: 53.
               norm_class_idx: 4
               splits:
                  - { var:185, quality:2.2407407760620117e+01,
                      le:5.0000000000000000e-01 }
            -
               depth: 6
               value: 53.
               norm_class_idx: 4
               splits:
                  - { var:96, quality:27., le:5.0000000000000000e-01 }
            -
               depth: 7
               value: 53.
               norm_class_idx: 4
            -
               depth: 7
               value: 54.
               norm_class_idx: 5
            -
               depth: 6
               value: 53.
               norm_class_idx: 4
            -
               depth: 4
               value: 49.
               norm_class_idx: 0
               splits:
                  - { var:187, quality:1.8607243347167969e+02,
                      le:5.0000000000000000e-01 }
            -
               depth: 5
               value: 49.
               norm_class_idx: 0
               splits:
                  - { var:173, quality:169., le:5.0000000000000000e-01 }
            -
               depth: 6
               value: 49.
               norm_class_idx: 0
            -
               depth: 6
               value: 53.
               norm_class_idx: 4
            -
               depth: 5
               value: 49.
               norm_class_idx: 0
            -
               depth: 3
               value: 51.
               norm_class_idx: 2
               splits:
                  - { var:89, quality:1.2299133300781250e+02,
                      le:5.0000000000000000e-01 }
            -
               depth: 4
               value: 51.
               norm_class_idx: 2
               splits:
                  - { var:235, quality:9.5516670227050781e+01,
                      le:5.0000000000000000e-01 }
            -
               depth: 5
               value: 50.
               norm_class_idx: 1
               splits:
                  - { var:54, quality:4.5238094329833984e+01,
                      le:5.0000000000000000e-01 }
            -
               depth: 6
               value: 50.
               norm_class_idx: 1
               splits:
                  - { var:198, quality:5.7285713195800781e+01,
                      le:5.0000000000000000e-01 }
            -
               depth: 7
               value: 55.
               norm_class_idx: 6
               splits:
                  - { var:200, quality:14., le:5.0000000000000000e-01 }
            -
               depth: 8
               value: 51.
               norm_class_idx: 2
            -
               depth: 8
               value: 55.
               norm_class_idx: 6
            -
               depth: 7
               value: 50.
               norm_class_idx: 1
            -
               depth: 6
               value: 55.
               norm_class_idx: 6
               splits:
                  - { var:254, quality:7., le:5.0000000000000000e-01 }
            -
               depth: 7
               value: 55.
               norm_class_idx: 6
            -
               depth: 7
               value: 56.
               norm_class_idx: 7
            -
               depth: 5
               value: 51.
               norm_class_idx: 2
               splits:
                  - { var:49, quality:7.2785049438476562e+01,
                      le:5.0000000000000000e-01 }
            -
               depth: 6
               value: 51.
               norm_class_idx: 2
               splits:
                  - { var:231, quality:7.1889259338378906e+01,
                      le:5.0000000000000000e-01 }
            -
               depth: 7
               value: 51.
               norm_class_idx: 2
            -
               depth: 7
               value: 56.
               norm_class_idx: 7
               splits:
                  - { var:196, quality:1.6200000762939453e+01,
                      le:5.0000000000000000e-01 }
            -
               depth: 8
               value: 53.
               norm_class_idx: 4
               splits:
                  - { var:124, quality:10., le:5.0000000000000000e-01 }
            -
               depth: 9
               value: 53.
               norm_class_idx: 4
            -
               depth: 9
               value: 51.
               norm_class_idx: 2
            -
               depth: 8
               value: 56.
               norm_class_idx: 7
            -
               depth: 6
               value: 56.
               norm_class_idx: 7
            -
               depth: 4
               value: 51.
               norm_class_idx: 2
               splits:
                  - { var:171, quality:1.2787418365478516e+02,
                      le:5.0000000000000000e-01 }
            -
               depth: 5
               value: 55.
               norm_class_idx: 6
               splits:
                  - { var:61, quality:6.8558441162109375e+01,
                      le:5.0000000000000000e-01 }
            -
               depth: 6
               value: 55.
               norm_class_idx: 6
               splits:
                  - { var:70, quality:5.2641792297363281e+01,
                      le:5.0000000000000000e-01 }
            -
               depth: 7
               value: 55.
               norm_class_idx: 6
            -
               depth: 7
               value: 49.
               norm_class_idx: 0
            -
               depth: 6
               value: 55.
               norm_class_idx: 6
            -
               depth: 5
               value: 51.
               norm_class_idx: 2
               splits:
                  - { var:52, quality:8.3111305236816406e+01,
                      le:5.0000000000000000e-01 }
            -
               depth: 6
               value: 51.
               norm_class_idx: 2
               splits:
                  - { var:86, quality:9.2380950927734375e+01,
                      le:5.0000000000000000e-01 }
            -
               depth: 7
               value: 51.
               norm_class_idx: 2
               splits:
                  - { var:14, quality:7.6492309570312500e+01,
                      le:5.0000000000000000e-01 }
            -
               depth: 8
               value: 51.
               norm_class_idx: 2
               splits:
                  - { var:140, quality:5.8777778625488281e+01,
                      le:5.0000000000000000e-01 }
            -
               depth: 9
               value: 51.
               norm_class_idx: 2
            -
               depth: 9
               value: 51.
               norm_class_idx: 2
               splits:
                  - { var:228, quality:1.2285714149475098e+01,
                      le:5.0000000000000000e-01 }
            -
               depth: 10
               value: 51.
               norm_class_idx: 2
            -
               depth: 10
               value: 51.
               norm_class_idx: 2
            -
               depth: 8
               value: 51.
               norm_class_idx: 2
            -
               depth: 7
               value: 52.
               norm_class_idx: 3
            -
               depth: 6
               value: 49.
               norm_class_idx: 0
               splits:
                  - { var:12, quality:1.6600000381469727e+01,
                      le:5.0000000000000000e-01 }
            -
               depth: 7
               value: 49.
               norm_class_idx: 0
               splits:
                  - { var:0, quality:1.8117647171020508e+01,
                      le:5.0000000000000000e-01 }
            -
               depth: 8
               value: 49.
               norm_class_idx: 0
            -
               depth: 8
               value: 51.
               norm_class_idx: 2
            -
               depth: 7
               value: 49.
               norm_class_idx: 0
            -
               depth: 2
               value: 50.
               norm_class_idx: 1
               splits:
                  - { var:102, quality:1.8471336364746094e+02,
                      le:5.0000000000000000e-01 }
            -
               depth: 3
               value: 50.
               norm_class_idx: 1
               splits:
                  - { var:190, quality:1.1769734191894531e+02,
                      le:5.0000000000000000e-01 }
            -
               depth: 4
               value: 50.
               norm_class_idx: 1
               splits:
                  - { var:50, quality:1.1612598419189453e+02,
                      le:5.0000000000000000e-01 }
            -
               depth: 5
               value: 50.
               norm_class_idx: 1
               splits:
                  - { var:243, quality:1.2377007293701172e+02,
                      le:5.0000000000000000e-01 }
            -
               depth: 6
               value: 54.
               norm_class_idx: 5
               splits:
                  - { var:235, quality:2.7951219558715820e+01,
                      le:5.0000000000000000e-01 }
            -
               depth: 7
               value: 55.
               norm_class_idx: 6
            -
               depth: 7
               value: 54.
               norm_class_idx: 5
               splits:
                  - { var:206, quality:2.8166666030883789e+01,
                      le:5.0000000000000000e-01 }
            -
               depth: 8
               value: 54.
               norm_class_idx: 5
               splits:
                  - { var:70, quality:2.7125000000000000e+01,
                      le:5.0000000000000000e-01 }
            -
               depth: 9
               value: 54.
               norm_class_idx: 5
               splits:
                  - { var:215, quality:1.4222222328186035e+01,
                      le:5.0000000000000000e-01 }
            -
               depth: 10
               value: 54.
               norm_class_idx: 5
            -
               depth: 10
               value: 50.
               norm_class_idx: 1
            -
               depth: 9
               value: 54.
               norm_class_idx: 5
            -
               depth: 8
               value: 52.
               norm_class_idx: 3
            -
               depth: 6
               value: 50.
               norm_class_idx: 1
               splits:
                  - { var:186, quality:1.1620295715332031e+02,
                      le:5.0000000000000000e-01 }
            -
               depth: 7
               value: 50.
               norm_class_idx: 1
               splits:
                  - { var:24, quality:1.1295037841796875e+02,
                      le:5.0000000000000000e-01 }
            -
               depth: 8
               value: 55.
               norm_class_idx: 6
               splits:
                  - { var:139, quality:44., le:5.0000000000000000e-01 }
            -
               depth: 9
               value: 55.
               norm_class_idx: 6
            -
               depth: 9
               value: 50.
               norm_class_idx: 1
            -
               depth: 8
               value: 50.
               norm_class_idx: 1
               splits:
                  - { var:57, quality:9.2111114501953125e+01,
                      le:5.0000000000000000e-01 }
            -
               depth: 9
               value: 50.
               norm_class_idx: 1
               splits:
                  - { var:219, quality:3.7737335205078125e+01,
                      le:5.0000000000000000e-01 }
            -
               depth: 10
               value: 50.
               norm_class_idx: 1
            -
               depth: 10
               value: 50.
               norm_class_idx: 1
            -
               depth: 9
               value: 50.
               norm_class_idx: 1
            -
               depth: 7
               value: 56.
               norm_class_idx: 7
               splits:
                  - { var:137, quality:2.2129032135009766e+01,
                      le:5.0000000000000000e-01 }
            -
               depth: 8
               value: 56.
               norm_class_idx: 7
            -
               depth: 8
               value: 50.
               norm_class_idx: 1
               splits:
                  - { var:140, quality:2.4181818008422852e+01,
                      le:5.0000000000000000e-01 }
            -
               depth: 9
               value: 56.
               norm_class_idx: 7
            -
               depth: 9
               value: 50.
               norm_class_idx: 1
               splits:
                  - { var:39, quality:2.0500000000000000e+01,
                      le:5.0000000000000000e-01 }
            -
               depth: 10
               value: 50.
               norm_class_idx: 1
            -
               depth: 10
               value: 56.
               norm_class_idx: 7
            -
               depth: 5
               value: 56.
               norm_class_idx: 7
               splits:
                  - { var:51, quality:2.1806451797485352e+01,
                      le:5.0000000000000000e-01 }
            -
               depth: 6
               value: 50.
               norm_class_idx: 1
            -
               depth: 6
               value: 56.
               norm_class_idx: 7
               splits:
                  - { var:166, quality:2.0629629135131836e+01,
                      le:5.0000000000000000e-01 }
            -
               depth: 7
               value: 50.
               norm_class_idx: 1
            -
               depth: 7
               value: 56.
               norm_class_idx: 7
               splits:
                  - { var:29, quality:2.1714284896850586e+01,
                      le:5.0000000000000000e-01 }
            -
               depth: 8
               value: 56.
               norm_class_idx: 7
               splits:
                  - { var:210, quality:21., le:5.0000000000000000e-01 }
            -
               depth: 9
               value: 50.
               norm_class_idx: 1
            -
               depth: 9
               value: 56.
               norm_class_idx: 7
            -
               depth: 8
               value: 50.
               norm_class_idx: 1
               splits:
                  - { var:134, quality:6., le:5.0000000000000000e-01 }
            -
               depth: 9
               value: 50.
               norm_class_idx: 1
            -
               depth: 9
               value: 56.
               norm_class_idx: 7
            -
               depth: 4
               value: 54.
               norm_class_idx: 5
               splits:
                  - { var:134, quality:1.6666666030883789e+01,
                      le:5.0000000000000000e-01 }
            -
               depth: 5
               value: 52.
               norm_class_idx: 3
            -
               depth: 5
               value: 54.
               norm_class_idx: 5
               splits:
                  - { var:146, quality:21., le:5.0000000000000000e-01 }
            -
               depth: 6
               value: 56.
               norm_class_idx: 7
            -
               depth: 6
               value: 54.
               norm_class_idx: 5
            -
               depth: 3
               value: 56.
               norm_class_idx: 7
               splits:
                  - { var:88, quality:9.6111114501953125e+01,
                      le:5.0000000000000000e-01 }
            -
               depth: 4
               value: 56.
               norm_class_idx: 7
               splits:
                  - { var:236, quality:8.7857139587402344e+01,
                      le:5.0000000000000000e-01 }
            -
               depth: 5
               value: 56.
               norm_class_idx: 7
            -
               depth: 5
               value: 56.
               norm_class_idx: 7
               splits:
                  - { var:90, quality:6.2138256072998047e+01,
                      le:5.0000000000000000e-01 }
            -
               depth: 6
               value: 56.
               norm_class_idx: 7
               splits:
                  - { var:125, quality:3.7087718963623047e+01,
                      le:5.0000000000000000e-01 }
            -
               depth: 7
               value: 56.
               norm_class_idx: 7
               splits:
                  - { var:240, quality:4.3311111450195312e+01,
                      le:5.0000000000000000e-01 }
            -
               depth: 8
               value: 56.
               norm_class_idx: 7
               splits:
                  - { var:11, quality:3.2678569793701172e+01,
                      le:5.0000000000000000e-01 }
            -
               depth: 9
               value: 56.
               norm_class_idx: 7
               splits:
                  - { var:83, quality:21., le:5.0000000000000000e-01 }
            -
               depth: 10
               value: 53.
               norm_class_idx: 4
            -
               depth: 10
               value: 56.
               norm_class_idx: 7
            -
               depth: 9
               value: 56.
               norm_class_idx: 7
               splits:
                  - { var:228, quality:2.2111110687255859e+01,
                      le:5.0000000000000000e-01 }
            -
               depth: 10
               value: 54.
               norm_class_idx: 5
            -
               depth: 10
               value: 56.
               norm_class_idx: 7
            -
               depth: 8
               value: 53.
               norm_class_idx: 4
            -
               depth: 7
               value: 56.
               norm_class_idx: 7
            -
               depth: 6
               value: 56.
               norm_class_idx: 7
               splits:
                  - { var:136, quality:32., le:5.0000000000000000e-01 }
            -
               depth: 7
               value: 52.
               norm_class_idx: 3
            -
               depth: 7
               value: 56.
               norm_class_idx: 7
            -
               depth: 4
               value: 52.
               norm_class_idx: 3
      -
         nodes:
            -
               depth: 0
               value: 56.
               norm_class_idx: 7
               splits:
                  - { var:220, quality:3.4619067382812500e+02,
                      le:5.0000000000000000e-01 }
            -
               depth: 1
               value: 49.
               norm_class_idx: 0
               splits:
                  - { var:76, quality:3.1556698608398438e+02,
                      le:5.0000000000000000e-01 }
            -
               depth: 2
               value: 49.
               norm_class_idx: 0
               splits:
                  - { var:166, quality:2.1524015808105469e+02,
                      le:5.0000000000000000e-01 }
            -
               depth: 3
               value: 49.
               norm_class_idx: 0
               splits:
                  - { var:88, quality:2.1854263305664062e+02,
                      le:5.0000000000000000e-01 }
            -
               depth: 4
               value: 55.
               norm_class_idx: 6
               splits:
                  - { var:70, quality:1.0222222328186035e+01,
                      le:5.0000000000000000e-01 }
            -
               depth: 5
               value: 55.
               norm_class_idx: 6
               splits:
                  - { var:96, quality:9., le:5.0000000000000000e-01 }
            -
               depth: 6
               value: 55.
               norm_class_idx: 6
            -
               depth: 6
               value: 51.
               norm_class_idx: 2
            -
               depth: 5
               value: 54.
               norm_class_idx: 5
               splits:
                  - { var:151, quality:6., le:5.0000000000000000e-01 }
            -
               depth: 6
               value: 56.
               norm_class_idx: 7
            -
               depth: 6
               value: 54.
               norm_class_idx: 5
            -
               depth: 4
               value: 49.
               norm_class_idx: 0
               splits:
                  - { var:210, quality:215., le:5.0000000000000000e-01 }
            -
               depth: 5
               value: 49.
               norm_class_idx: 0
            -
               depth: 5
               value: 52.
               norm_class_idx: 3
            -
               depth: 3
               value: 50.
               norm_class_idx: 1
               splits:
                  - { var:199, quality:3.1523809432983398e+01,
                      le:5.0000000000000000e-01 }
            -
               depth: 4
               value: 50.
               norm_class_idx: 1
            -
               depth: 4
               value: 55.
               norm_class_idx: 6
               splits:
                  - { var:224, quality:11., le:5.0000000000000000e-01 }
            -
               depth: 5
               value: 49.
               norm_class_idx: 0
               splits:
                  - { var:72, quality:1.5384614944458008e+01,
                      le:5.0000000000000000e-01 }
            -
               depth: 6
               value: 55.
               norm_class_idx: 6
            -
               depth: 6
               value: 49.
               norm_class_idx: 0
            -
               depth: 5
               value: 55.
               norm_class_idx: 6
            -
               depth: 2
               value: 50.
               norm_class_idx: 1
               splits:
                  - { var:121, quality:1.6409822082519531e+02,
                      le:5.0000000000000000e-01 }
            -
               depth: 3
               value: 50.
               norm_class_idx: 1
            -
               depth: 3
               value: 55.
               norm_class_idx: 6
               splits:
                  - { var:251, quality:1.4295790100097656e+02,
                      le:5.0000000000000000e-01 }
            -
               depth: 4
               value: 55.
               norm_class_idx: 6
               splits:
                  - { var:118, quality:1.0693992614746094e+02,
                      le:5.0000000000000000e-01 }
            -
               depth: 5
               value: 55.
               norm_class_idx: 6
               splits:
                  - { var:18, quality:9.1187858581542969e+01,
                      le:5.0000000000000000e-01 }
            -
               depth: 6
               value: 55.
               norm_class_idx: 6
               splits:
                  - { var:120, quality:4.2285713195800781e+01,
                      le:5.0000000000000000e-01 }
            -
               depth: 7
               value: 55.
               norm_class_idx: 6
               splits:
                  - { var:166, quality:14., le:5.0000000000000000e-01 }
            -
               depth: 8
               value: 55.
               norm_class_idx: 6
            -
               depth: 8
               value: 50.
               norm_class_idx: 1
            -
               depth: 7
               value: 55.
               norm_class_idx: 6
            -
               depth: 6
               value: 55.
               norm_class_idx: 6
               splits:
                  - { var:46, quality:5.4250000000000000e+01,
                      le:5.0000000000000000e-01 }
            -
               depth: 7
               value: 55.
               norm_class_idx: 6
               splits:
                  - { var:119, quality:2.8266666412353516e+01,
                      le:5.0000000000000000e-01 }
            -
               depth: 8
               value: 55.
               norm_class_idx: 6
               splits:
                  - { var:165, quality:30., le:5.0000000000000000e-01 }
            -
               depth: 9
               value: 55.
               norm_class_idx: 6
            -
               depth: 9
               value: 50.
               norm_class_idx: 1
            -
               depth: 8
               value: 55.
               norm_class_idx: 6
            -
               depth: 7
               value: 55.
               norm_class_idx: 6
               splits:
                  - { var:141, quality:3.6153846740722656e+01,
                      le:5.0000000000000000e-01 }
            -
               depth: 8
               value: 55.
               norm_class_idx: 6
               splits:
                  - { var:225, quality:3.7064517974853516e+01,
                      le:5.0000000000000000e-01 }
            -
               depth: 9
               value: 55.
               norm_class_idx: 6
               splits:
                  - { var:134, quality:2.9071428298950195e+01,
                      le:5.0000000000000000e-01 }
            -
               depth: 10
               value: 55.
               norm_class_idx: 6
            -
               depth: 10
               value: 55.
               norm_class_idx: 6
            -
               depth: 9
               value: 50.
               norm_class_idx: 1
            -
               depth: 8
               value: 50.
               norm_class_idx: 1
            -
               depth: 5
               value: 56.
               norm_class_idx: 7
               splits:
                  - { var:55, quality:32., le:5.0000000000000000e-01 }
            -
               depth: 6
               value: 55.
               norm_class_idx: 6
            -
               depth: 6
               value: 56.
               norm_class_idx: 7
            -
               depth: 4
               value: 50.
               norm_class_idx: 1
               splits:
                  - { var:151, quality:6.0500000000000000e+01,
                      le:5.0000000000000000e-01 }
            -
               depth: 5
               value: 56.
               norm_class_idx: 7
            -
               depth: 5
               value: 50.
               norm_class_idx: 1
            -
               depth: 1
               value: 51.
               norm_class_idx: 2
               splits:
                  - { var:84, quality:3.1549664306640625e+02,
                      le:5.0000000000000000e-01 }
            -
               depth: 2
               value: 51.
               norm_class_idx: 2
               splits:
                  - { var:56, quality:2.3954737854003906e+02,
                      le:5.0000000000000000e-01 }
            -
               depth: 3
               value: 51.
               norm_class_idx: 2
               splits:
                  - { var:209, quality:2.1467591857910156e+02,
                      le:5.0000000000000000e-01 }
            -
               depth: 4
               value: 51.
               norm_class_idx: 2
               splits:
                  - { var:109, quality:1.8504209899902344e+02,
                      le:5.0000000000000000e-01 }
            -
               depth: 5
               value: 51.
               norm_class_idx: 2
               splits:
                  - { var:173, quality:1.6028147888183594e+02,
                      le:5.0000000000000000e-01 }
            -
               depth: 6
               value: 51.
               norm_class_idx: 2
            -
               depth: 6
               value: 51.
               norm_class_idx: 2
               splits:
                  - { var:226, quality:1.0589830780029297e+02,
                      le:5.0000000000000000e-01 }
            -
               depth: 7
               value: 51.
               norm_class_idx: 2
               splits:
                  - { var:170, quality:1.0712000274658203e+02,
                      le:5.0000000000000000e-01 }
            -
               depth: 8
               value: 54.
               norm_class_idx: 5
               splits:
                  - { var:222, quality:25., le:5.0000000000000000e-01 }
            -
               depth: 9
               value: 54.
               norm_class_idx: 5
            -
               depth: 9
               value: 51.
               norm_class_idx: 2
            -
               depth: 8
               value: 51.
               norm_class_idx: 2
            -
               depth: 7
               value: 51.
               norm_class_idx: 2
            -
               depth: 5
               value: 51.
               norm_class_idx: 2
            -
               depth: 4
               value: 50.
               norm_class_idx: 1
            -
               depth: 3
               value: 52.
               norm_class_idx: 3
               splits:
                  - { var:194, quality:9.3291664123535156e+01,
                      le:5.0000000000000000e-01 }
            -
               depth: 4
               value: 54.
               norm_class_idx: 5
               splits:
                  - { var:252, quality:2.7515151977539062e+01,
                      le:5.0000000000000000e-01 }
            -
               depth: 5
               value: 52.
               norm_class_idx: 3
            -
               depth: 5
               value: 54.
               norm_class_idx: 5
               splits:
                  - { var:246, quality:2.3933332443237305e+01,
                      le:5.0000000000000000e-01 }
            -
               depth: 6
               value: 51.
               norm_class_idx: 2
               splits:
                  - { var:126, quality:1.0636363983154297e+01,
                      le:5.0000000000000000e-01 }
            -
               depth: 7
               value: 51.
               norm_class_idx: 2
               splits:
                  - { var:253, quality:6.8000001907348633e+00,
                      le:5.0000000000000000e-01 }
            -
               depth: 8
               value: 51.
               norm_class_idx: 2
            -
               depth: 8
               value: 51.
               norm_class_idx: 2
            -
               depth: 7
               value: 50.
               norm_class_idx: 1
            -
               depth: 6
               value: 54.
               norm_class_idx: 5
            -
               depth: 4
               value: 52.
               norm_class_idx: 3
            -
               depth: 2
               value: 56.
               norm_class_idx: 7
               splits:
                  - { var:194, quality:2.4877209472656250e+02,
                      le:5.0000000000000000e-01 }
            -
               depth: 3
               value: 53.
               norm_class_idx: 4
               splits:
                  - { var:19, quality:1.6684306335449219e+02,
                      le:5.0000000000000000e-01 }
            -
               depth: 4
               value: 53.
               norm_class_idx: 4
               splits:
                  - { var:149, quality:9.7160758972167969e+01,
                      le:5.0000000000000000e-01 }
            -
               depth: 5
               value: 53.
               norm_class_idx: 4
               splits:
                  - { var:150, quality:4.1400001525878906e+01,
                      le:5.0000000000000000e-01 }
            -
               depth: 6
               value: 53.
               norm_class_idx: 4
               splits:
                  - { var:131, quality:4.0384616851806641e+01,
                      le:5.0000000000000000e-01 }
            -
               depth: 7
               value: 53.
               norm_class_idx: 4
            -
               depth: 7
               value: 53.
               norm_class_idx: 4
               splits:
                  - { var:215, quality:1.1181818008422852e+01,
                      le:5.0000000000000000e-01 }
            -
               depth: 8
               value: 53.
               norm_class_idx: 4
               splits:
                  - { var:198, quality:11., le:5.0000000000000000e-01 }
            -
               depth: 9
               value: 53.
               norm_class_idx: 4
            -
               depth: 9
               value: 52.
               norm_class_idx: 3
            -
               depth: 8
               value: 52.
               norm_class_idx: 3
            -
               depth: 6
               value: 53.
               norm_class_idx: 4
            -
               depth: 5
               value: 56.
               norm_class_idx: 7
               splits:
                  - { var:91, quality:1.1475000000000000e+02,
                      le:5.0000000000000000e-01 }
            -
               depth: 6
               value: 54.
               norm_class_idx: 5
            -
               depth: 6
               value: 56.
               norm_class_idx: 7
            -
               depth: 4
               value: 53.
               norm_class_idx: 4
               splits:
                  - { var:35, quality:1.0033333587646484e+02,
                      le:5.0000000000000000e-01 }
            -
               depth: 5
               value: 56.
               norm_class_idx: 7
            -
               depth: 5
               value: 53.
               norm_class_idx: 4
               splits:
                  - { var:93, quality:9.9565216064453125e+01,
                      le:5.0000000000000000e-01 }
            -
               depth: 6
               value: 53.
               norm_class_idx: 4
            -
               depth: 6
               value: 53.
               norm_class_idx: 4
               splits:
                  - { var:2, quality:1.6857143402099609e+01,
                      le:5.0000000000000000e-01 }
            -
               depth: 7
               value: 50.
               norm_class_idx: 1
            -
               depth: 7
               value: 53.
               norm_class_idx: 4
               splits:
                  - { var:226, quality:1.9500000000000000e+01,
                      le:5.0000000000000000e-01 }
            -
               depth: 8
               value: 55.
               norm_class_idx: 6
            -
               depth: 8
               value: 53.
               norm_class_idx: 4
            -
               depth: 3
               value: 56.
               norm_class_idx: 7
               splits:
                  - { var:201, quality:1.3020469665527344e+02,
                      le:5.0000000000000000e-01 }
            -
               depth: 4
               value: 56.
               norm_class_idx: 7
               splits:
                  - { var:251, quality:1.2487080383300781e+02,
                      le:5.0000000000000000e-01 }
            -
               depth: 5
               value: 54.
               norm_class_idx: 5
               splits:
                  - { var:126, quality:1.2285714149475098e+01,
                      le:5.0000000000000000e-01 }
            -
               depth: 6
               value: 56.
               norm_class_idx: 7
            -
               depth: 6
               value: 54.
               norm_class_idx: 5
               splits:
                  - { var:45, quality:1.2181818008422852e+01,
                      le:5.0000000000000000e-01 }
            -
               depth: 7
               value: 54.
               norm_class_idx: 5
               splits:
                  - { var:161, quality:11., le:5.0000000000000000e-01 }
            -
               depth: 8
               value: 56.
               norm_class_idx: 7
            -
               depth: 8
               value: 54.
               norm_class_idx: 5
            -
               depth: 7
               value: 56.
               norm_class_idx: 7
            -
               depth: 5
               value: 56.
               norm_class_idx: 7
               splits:
                  - { var:118, quality:1.1923504638671875e+02,
                      le:5.0000000000000000e-01 }
            -
               depth: 6
               value: 56.
               norm_class_idx: 7
               splits:
                  - { var:76, quality:12., le:5.0000000000000000e-01 }
            -
               depth: 7
               value: 54.
               norm_class_idx: 5
            -
               depth: 7
               value: 56.
               norm_class_idx: 7
            -
               depth: 6
               value: 56.
               norm_class_idx: 7
               splits:
                  - { var:159, quality:1.1309195709228516e+02,
                      le:5.0000000000000000e-01 }
            -
               depth: 7
               value: 56.
               norm_class_idx: 7
               splits:
                  - { var:237, quality:8.3727272033691406e+01,
                      le:5.0000000000000000e-01 }
            -
               depth: 8
               value: 56.
               norm_class_idx: 7
            -
               depth: 8
               value: 56.
               norm_class_idx: 7
            -
               depth: 7
               value: 56.
               norm_class_idx: 7
            -
               depth: 4
               value: 52.
               norm_class_idx: 3
               splits:
                  - { var:228, quality:1.5142857551574707e+01,
                      le:5.0000000000000000e-01 }
            -
               depth: 5
               value: 52.
               norm_class_idx: 3
            -
               depth: 5
               value: 52.
               norm_class_idx: 3
               splits:
                  - { var:87, quality:11., le:5.0000000000000000e-01 }
            -
               depth: 6
               value: 56.
               norm_class_idx: 7
               splits:
                  - { var:144, quality:8., le:5.0000000000000000e-01 }
            -
               depth: 7
               value: 56.
               norm_class_idx: 7
            -
               depth: 7
               value: 52.
               norm_class_idx: 3
            -
               depth: 6
               value: 52.
               norm_class_idx: 3
      -
         nodes:
            -
               depth: 0
               value: 56.
               norm_class_idx: 7
               splits:
                  - { var:169, quality:2.4724678039550781e+02,
                      le:5.0000000000000000e-01 }
            -
               depth: 1
               value: 56.
               norm_class_idx: 7
               splits:
                  - { var:176, quality:1.3503428649902344e+02,
                      le:5.0000000000000000e-01 }
            -
               depth: 2
               value: 56.
               norm_class_idx: 7
               splits:
                  - { var:4, quality:1.5607127380371094e+02,
                      le:5.0000000000000000e-01 }
            -
               depth: 3
               value: 56.
               norm_class_idx: 7
               splits:
                  - { var:69, quality:1.1044995117187500e+02,
                      le:5.0000000000000000e-01 }
            -
               depth: 4
               value: 51.
               norm_class_idx: 2
               splits:
                  - { var:187, quality:3.1860975265502930e+01,
                      le:5.0000000000000000e-01 }
            -
               depth: 5
               value: 50.
               norm_class_idx: 1
               splits:
                  - { var:158, quality:1.4947368621826172e+01,
                      le:5.0000000000000000e-01 }
            -
               depth: 6
               value: 50.
               norm_class_idx: 1
               splits:
                  - { var:20, quality:1.4636363983154297e+01,
                      le:5.0000000000000000e-01 }
            -
               depth: 7
               value: 50.
               norm_class_idx: 1
               splits:
                  - { var:60, quality:7., le:5.0000000000000000e-01 }
            -
               depth: 8
               value: 50.
               norm_class_idx: 1
               splits:
                  - { var:244, quality:9., le:5.0000000000000000e-01 }
            -
               depth: 9
               value: 49.
               norm_class_idx: 0
            -
               depth: 9
               value: 50.
               norm_class_idx: 1
            -
               depth: 8
               value: 50.
               norm_class_idx: 1
            -
               depth: 7
               value: 50.
               norm_class_idx: 1
            -
               depth: 6
               value: 51.
               norm_class_idx: 2
            -
               depth: 5
               value: 51.
               norm_class_idx: 2
               splits:
                  - { var:76, quality:2.4135135650634766e+01,
                      le:5.0000000000000000e-01 }
            -
               depth: 6
               value: 50.
               norm_class_idx: 1
            -
               depth: 6
               value: 51.
               norm_class_idx: 2
               splits:
                  - { var:177, quality:37., le:5.0000000000000000e-01 }
            -
               depth: 7
               value: 51.
               norm_class_idx: 2
            -
               depth: 7
               value: 52.
               norm_class_idx: 3
            -
               depth: 4
               value: 56.
               norm_class_idx: 7
               splits:
                  - { var:76, quality:1.4644642639160156e+02,
                      le:5.0000000000000000e-01 }
            -
               depth: 5
               value: 54.
               norm_class_idx: 5
               splits:
                  - { var:165, quality:7.2854370117187500e+01,
                      le:5.0000000000000000e-01 }
            -
               depth: 6
               value: 53.
               norm_class_idx: 4
            -
               depth: 6
               value: 54.
               norm_class_idx: 5
               splits:
                  - { var:241, quality:7.2812500000000000e+01,
                      le:5.0000000000000000e-01 }
            -
               depth: 7
               value: 54.
               norm_class_idx: 5
               splits:
                  - { var:23, quality:7.0064514160156250e+01,
                      le:5.0000000000000000e-01 }
            -
               depth: 8
               value: 56.
               norm_class_idx: 7
            -
               depth: 8
               value: 54.
               norm_class_idx: 5
               splits:
                  - { var:58, quality:8.8199996948242188e+01,
                      le:5.0000000000000000e-01 }
            -
               depth: 9
               value: 54.
               norm_class_idx: 5
            -
               depth: 9
               value: 56.
               norm_class_idx: 7
               splits:
                  - { var:135, quality:15., le:5.0000000000000000e-01 }
            -
               depth: 10
               value: 52.
               norm_class_idx: 3
            -
               depth: 10
               value: 56.
               norm_class_idx: 7
            -
               depth: 7
               value: 56.
               norm_class_idx: 7
            -
               depth: 5
               value: 56.
               norm_class_idx: 7
            -
               depth: 3
               value: 53.
               norm_class_idx: 4
               splits:
                  - { var:197, quality:1.1678366851806641e+02,
                      le:5.0000000000000000e-01 }
            -
               depth: 4
               value: 53.
               norm_class_idx: 4
               splits:
                  - { var:57, quality:1.0446604919433594e+02,
                      le:5.0000000000000000e-01 }
            -
               depth: 5
               value: 53.
               norm_class_idx: 4
               splits:
                  - { var:115, quality:1.1188505554199219e+02,
                      le:5.0000000000000000e-01 }
            -
               depth: 6
               value: 53.
               norm_class_idx: 4
               splits:
                  - { var:70, quality:72., le:5.0000000000000000e-01 }
            -
               depth: 7
               value: 51.
               norm_class_idx: 2
               splits:
                  - { var:69, quality:40., le:5.0000000000000000e-01 }
            -
               depth: 8
               value: 51.
               norm_class_idx: 2
            -
               depth: 8
               value: 56.
               norm_class_idx: 7
            -
               depth: 7
               value: 53.
               norm_class_idx: 4
            -
               depth: 6
               value: 53.
               norm_class_idx: 4
            -
               depth: 5
               value: 50.
               norm_class_idx: 1
               splits:
                  - { var:231, quality:1.1426573753356934e+01,
                      le:5.0000000000000000e-01 }
            -
               depth: 6
               value: 50.
               norm_class_idx: 1
               splits:
                  - { var:56, quality:7.8000001907348633e+00,
                      le:5.0000000000000000e-01 }
            -
               depth: 7
               value: 51.
               norm_class_idx: 2
            -
               depth: 7
               value: 50.
               norm_class_idx: 1
               splits:
                  - { var:186, quality:10., le:5.0000000000000000e-01 }
            -
               depth: 8
               value: 50.
               norm_class_idx: 1
            -
               depth: 8
               value: 55.
               norm_class_idx: 6
            -
               depth: 6
               value: 53.
               norm_class_idx: 4
               splits:
                  - { var:207, quality:10., le:5.0000000000000000e-01 }
            -
               depth: 7
               value: 51.
               norm_class_idx: 2
               splits:
                  - { var:34, quality:6., le:5.0000000000000000e-01 }
            -
               depth: 8
               value: 51.
               norm_class_idx: 2
            -
               depth: 8
               value: 55.
               norm_class_idx: 6
            -
               depth: 7
               value: 53.
               norm_class_idx: 4
            -
               depth: 4
               value: 50.
               norm_class_idx: 1
               splits:
                  - { var:49, quality:2.9567346572875977e+01,
                      le:5.0000000000000000e-01 }
            -
               depth: 5
               value: 50.
               norm_class_idx: 1
               splits:
                  - { var:227, quality:2.7707206726074219e+01,
                      le:5.0000000000000000e-01 }
            -
               depth: 6
               value: 56.
               norm_class_idx: 7
               splits:
                  - { var:240, quality:9.1999998092651367e+00,
                      le:5.0000000000000000e-01 }
            -
               depth: 7
               value: 55.
               norm_class_idx: 6
            -
               depth: 7
               value: 56.
               norm_class_idx: 7
            -
               depth: 6
               value: 50.
               norm_class_idx: 1
               splits:
                  - { var:90, quality:2.3628570556640625e+01,
                      le:5.0000000000000000e-01 }
            -
               depth: 7
               value: 56.
               norm_class_idx: 7
            -
               depth: 7
               value: 50.
               norm_class_idx: 1
               splits:
                  - { var:158, quality:2.3969696044921875e+01,
                      le:5.0000000000000000e-01 }
            -
               depth: 8
               value: 50.
               norm_class_idx: 1
               splits:
                  - { var:103, quality:33., le:5.0000000000000000e-01 }
            -
               depth: 9
               value: 50.
               norm_class_idx: 1
            -
               depth: 9
               value: 56.
               norm_class_idx: 7
            -
               depth: 8
               value: 56.
               norm_class_idx: 7
            -
               depth: 5
               value: 54.
               norm_class_idx: 5
               splits:
                  - { var:220, quality:10., le:5.0000000000000000e-01 }
            -
               depth: 6
               value: 56.
               norm_class_idx: 7
            -
               depth: 6
               value: 54.
               norm_class_idx: 5
            -
               depth: 2
               value: 52.
               norm_class_idx: 3
               splits:
                  - { var:40, quality:5.4385578155517578e+01,
                      le:5.0000000000000000e-01 }
            -
               depth: 3
               value: 56.
               norm_class_idx: 7
               splits:
                  - { var:51, quality:2.2185184478759766e+01,
                      le:5.0000000000000000e-01 }
            -
               depth: 4
               value: 55.
               norm_class_idx: 6
            -
               depth: 4
               value: 56.
               norm_class_idx: 7
               splits:
                  - { var:97, quality:27., le:5.0000000000000000e-01 }
            -
               depth: 5
               value: 56.
               norm_class_idx: 7
            -
               depth: 5
               value: 54.
               norm_class_idx: 5
            -
               depth: 3
               value: 52.
               norm_class_idx: 3
               splits:
                  - { var:69, quality:3.8945453643798828e+01,
                      le:5.0000000000000000e-01 }
            -
               depth: 4
               value: 52.
               norm_class_idx: 3
               splits:
                  - { var:22, quality:55., le:5.0000000000000000e-01 }
            -
               depth: 5
               value: 52.
               norm_class_idx: 3
            -
               depth: 5
               value: 50.
               norm_class_idx: 1
            -
               depth: 4
               value: 52.
               norm_class_idx: 3
            -
               depth: 1
               value: 49.
               norm_class_idx: 0
               splits:
                  - { var:68, quality:2.1893450927734375e+02,
                      le:5.0000000000000000e-01 }
            -
               depth: 2
               value: 50.
               norm_class_idx: 1
               splits:
                  - { var:191, quality:1.3628506469726562e+02,
                      le:5.0000000000000000e-01 }
            -
               depth: 3
               value: 50.
               norm_class_idx: 1
               splits:
                  - { var:186, quality:1.6702027893066406e+02,
                      le:5.0000000000000000e-01 }
            -
               depth: 4
               value: 55.
               norm_class_idx: 6
               splits:
                  - { var:0, quality:9.4939666748046875e+01,
                      le:5.0000000000000000e-01 }
            -
               depth: 5
               value: 55.
               norm_class_idx: 6
               splits:
                  - { var:154, quality:8.3317573547363281e+01,
                      le:5.0000000000000000e-01 }
            -
               depth: 6
               value: 55.
               norm_class_idx: 6
               splits:
                  - { var:248, quality:2.3527273178100586e+01,
                      le:5.0000000000000000e-01 }
            -
               depth: 7
               value: 55.
               norm_class_idx: 6
            -
               depth: 7
               value: 55.
               norm_class_idx: 6
               splits:
                  - { var:11, quality:1.9451612472534180e+01,
                      le:5.0000000000000000e-01 }
            -
               depth: 8
               value: 49.
               norm_class_idx: 0
            -
               depth: 8
               value: 55.
               norm_class_idx: 6
               splits:
                  - { var:37, quality:1.8692308425903320e+01,
                      le:5.0000000000000000e-01 }
            -
               depth: 9
               value: 55.
               norm_class_idx: 6
            -
               depth: 9
               value: 55.
               norm_class_idx: 6
               splits:
                  - { var:135, quality:1.5090909004211426e+01,
                      le:5.0000000000000000e-01 }
            -
               depth: 10
               value: 55.
               norm_class_idx: 6
            -
               depth: 10
               value: 55.
               norm_class_idx: 6
            -
               depth: 6
               value: 50.
               norm_class_idx: 1
               splits:
                  - { var:243, quality:8.6755989074707031e+01,
                      le:5.0000000000000000e-01 }
            -
               depth: 7
               value: 55.
               norm_class_idx: 6
               splits:
                  - { var:73, quality:3.6266666412353516e+01,
                      le:5.0000000000000000e-01 }
            -
               depth: 8
               value: 55.
               norm_class_idx: 6
               splits:
                  - { var:55, quality:1.7200000762939453e+01,
                      le:5.0000000000000000e-01 }
            -
               depth: 9
               value: 55.
               norm_class_idx: 6
            -
               depth: 9
               value: 55.
               norm_class_idx: 6
            -
               depth: 8
               value: 55.
               norm_class_idx: 6
               splits:
                  - { var:11, quality:30., le:5.0000000000000000e-01 }
            -
