%YAML:1.0
---
opencv_ml_rtrees:
   format: 3
   is_classifier: 1
   var_all: 257
   var_count: 256
   ord_var_count: 256
   cat_var_count: 1
   training_params:
      use_surrogates: 0
      max_categories: 15
      regression_accuracy: 0.
      max_depth: 10
      min_sample_count: 10
      cross_validation_folds: 0
      nactive_vars: 4
   global_var_idx: 1
   var_idx: [ 0, 1, 2, 3, 4, 5, 6, 7, 8, 9, 10, 11, 12, 13, 14, 15, 16,
       17, 18, 19, 20, 21, 22, 23, 24, 25, 26, 27, 28, 29, 30, 31, 32,
       33, 34, 35, 36, 37, 38, 39, 40, 41, 42, 43, 44, 45, 46, 47, 48,
       49, 50, 51, 52, 53, 54, 55, 56, 57, 58, 59, 60, 61, 62, 63, 64,
       65, 66, 67, 68, 69, 70, 71, 72, 73, 74, 75, 76, 77, 78, 79, 80,
       81, 82, 83, 84, 85, 86, 87, 88, 89, 90, 91, 92, 93, 94, 95, 96,
       97, 98, 99, 100, 101, 102, 103, 104, 105, 106, 107, 108, 109, 110,
       111, 112, 113, 114, 115, 116, 117, 118, 119, 120, 121, 122, 123,
       124, 125, 126, 127, 128, 129, 130, 131, 132, 133, 134, 135, 136,
       137, 138, 139, 140, 141, 142, 143, 144, 145, 146, 147, 148, 149,
       150, 151, 152, 153, 154, 155, 156, 157, 158, 159, 160, 161, 162,
       163, 164, 165, 166, 167, 168, 169, 170, 171, 172, 173, 174, 175,
       176, 177, 178, 179, 180, 181, 182, 183, 184, 185, 186, 187, 188,
       189, 190, 191, 192, 193, 194, 195, 196, 197, 198, 199, 200, 201,
       202, 203, 204, 205, 206, 207, 208, 209, 210, 211, 212, 213, 214,
       215, 216, 217, 218, 219, 220, 221, 222, 223, 224, 225, 226, 227,
       228, 229, 230, 231, 232, 233, 234, 235, 236, 237, 238, 239, 240,
       241, 242, 243, 244, 245, 246, 247, 248, 249, 250, 251, 252, 253,
       254, 255 ]
   var_type: [ 0, 0, 0, 0, 0, 0, 0, 0, 0, 0, 0, 0, 0, 0, 0, 0, 0, 0, 0,
       0, 0, 0, 0, 0, 0, 0, 0, 0, 0, 0, 0, 0, 0, 0, 0, 0, 0, 0, 0, 0, 0,
       0, 0, 0, 0, 0, 0, 0, 0, 0, 0, 0, 0, 0, 0, 0, 0, 0, 0, 0, 0, 0, 0,
       0, 0, 0, 0, 0, 0, 0, 0, 0, 0, 0, 0, 0, 0, 0, 0, 0, 0, 0, 0, 0, 0,
       0, 0, 0, 0, 0, 0, 0, 0, 0, 0, 0, 0, 0, 0, 0, 0, 0, 0, 0, 0, 0, 0,
       0, 0, 0, 0, 0, 0, 0, 0, 0, 0, 0, 0, 0, 0, 0, 0, 0, 0, 0, 0, 0, 0,
       0, 0, 0, 0, 0, 0, 0, 0, 0, 0, 0, 0, 0, 0, 0, 0, 0, 0, 0, 0, 0, 0,
       0, 0, 0, 0, 0, 0, 0, 0, 0, 0, 0, 0, 0, 0, 0, 0, 0, 0, 0, 0, 0, 0,
       0, 0, 0, 0, 0, 0, 0, 0, 0, 0, 0, 0, 0, 0, 0, 0, 0, 0, 0, 0, 0, 0,
       0, 0, 0, 0, 0, 0, 0, 0, 0, 0, 0, 0, 0, 0, 0, 0, 0, 0, 0, 0, 0, 0,
       0, 0, 0, 0, 0, 0, 0, 0, 0, 0, 0, 0, 0, 0, 0, 0, 0, 0, 0, 0, 0, 0,
       0, 0, 0, 0, 0, 0, 0, 0, 0, 0, 0, 0, 0, 0, 0, 0, 0, 1 ]
   cat_ofs: [ 0, 0, 0, 0, 0, 0, 0, 0, 0, 0, 0, 0, 0, 0, 0, 0, 0, 0, 0, 0,
       0, 0, 0, 0, 0, 0, 0, 0, 0, 0, 0, 0, 0, 0, 0, 0, 0, 0, 0, 0, 0, 0,
       0, 0, 0, 0, 0, 0, 0, 0, 0, 0, 0, 0, 0, 0, 0, 0, 0, 0, 0, 0, 0, 0,
       0, 0, 0, 0, 0, 0, 0, 0, 0, 0, 0, 0, 0, 0, 0, 0, 0, 0, 0, 0, 0, 0,
       0, 0, 0, 0, 0, 0, 0, 0, 0, 0, 0, 0, 0, 0, 0, 0, 0, 0, 0, 0, 0, 0,
       0, 0, 0, 0, 0, 0, 0, 0, 0, 0, 0, 0, 0, 0, 0, 0, 0, 0, 0, 0, 0, 0,
       0, 0, 0, 0, 0, 0, 0, 0, 0, 0, 0, 0, 0, 0, 0, 0, 0, 0, 0, 0, 0, 0,
       0, 0, 0, 0, 0, 0, 0, 0, 0, 0, 0, 0, 0, 0, 0, 0, 0, 0, 0, 0, 0, 0,
       0, 0, 0, 0, 0, 0, 0, 0, 0, 0, 0, 0, 0, 0, 0, 0, 0, 0, 0, 0, 0, 0,
       0, 0, 0, 0, 0, 0, 0, 0, 0, 0, 0, 0, 0, 0, 0, 0, 0, 0, 0, 0, 0, 0,
       0, 0, 0, 0, 0, 0, 0, 0, 0, 0, 0, 0, 0, 0, 0, 0, 0, 0, 0, 0, 0, 0,
       0, 0, 0, 0, 0, 0, 0, 0, 0, 0, 0, 0, 0, 0, 0, 0, 0, 0, 0, 0, 0, 0,
       0, 0, 0, 0, 0, 0, 0, 0, 0, 0, 0, 0, 0, 0, 0, 0, 0, 0, 0, 0, 0, 0,
       0, 0, 0, 0, 0, 0, 0, 0, 0, 0, 0, 0, 0, 0, 0, 0, 0, 0, 0, 0, 0, 0,
       0, 0, 0, 0, 0, 0, 0, 0, 0, 0, 0, 0, 0, 0, 0, 0, 0, 0, 0, 0, 0, 0,
       0, 0, 0, 0, 0, 0, 0, 0, 0, 0, 0, 0, 0, 0, 0, 0, 0, 0, 0, 0, 0, 0,
       0, 0, 0, 0, 0, 0, 0, 0, 0, 0, 0, 0, 0, 0, 0, 0, 0, 0, 0, 0, 0, 0,
       0, 0, 0, 0, 0, 0, 0, 0, 0, 0, 0, 0, 0, 0, 0, 0, 0, 0, 0, 0, 0, 0,
       0, 0, 0, 0, 0, 0, 0, 0, 0, 0, 0, 0, 0, 0, 0, 0, 0, 0, 0, 0, 0, 0,
       0, 0, 0, 0, 0, 0, 0, 0, 0, 0, 0, 0, 0, 0, 0, 0, 0, 0, 0, 0, 0, 0,
       0, 0, 0, 0, 0, 0, 0, 0, 0, 0, 0, 0, 0, 0, 0, 0, 0, 0, 0, 0, 0, 0,
       0, 0, 0, 0, 0, 0, 0, 0, 0, 0, 0, 0, 0, 0, 0, 0, 0, 0, 0, 0, 0, 0,
       0, 0, 0, 0, 0, 0, 0, 0, 0, 0, 0, 0, 0, 0, 0, 0, 0, 0, 0, 0, 0, 0,
       0, 0, 0, 0, 0, 0, 0, 0 ]
   class_labels: [ 49, 50, 51, 52, 53, 54, 55, 56 ]
   missing_subst: [ 0., 0., 0., 0., 0., 0., 0., 0., 0., 0., 0., 0., 0.,
       0., 0., 0., 0., 0., 0., 0., 0., 0., 0., 0., 0., 0., 0., 0., 0.,
       0., 0., 0., 0., 0., 0., 0., 0., 0., 0., 0., 0., 0., 0., 0., 0.,
       0., 0., 0., 0., 0., 0., 0., 0., 0., 0., 0., 0., 0., 0., 0., 0.,
       0., 0., 0., 0., 0., 0., 0., 0., 0., 0., 0., 0., 0., 0., 0., 0.,
       0., 0., 0., 0., 0., 0., 0., 0., 0., 0., 0., 0., 0., 0., 0., 0.,
       0., 0., 0., 0., 0., 0., 0., 0., 0., 0., 0., 0., 0., 0., 0., 0.,
       0., 0., 0., 0., 0., 0., 0., 0., 0., 0., 0., 0., 0., 0., 0., 0.,
       0., 0., 0., 0., 0., 0., 0., 0., 0., 0., 0., 0., 0., 0., 0., 0.,
       0., 0., 0., 0., 0., 0., 0., 0., 0., 0., 0., 0., 0., 0., 0., 0.,
       0., 0., 0., 0., 0., 0., 0., 0., 0., 0., 0., 0., 0., 0., 0., 0.,
       0., 0., 0., 0., 0., 0., 0., 0., 0., 0., 0., 0., 0., 0., 0., 0.,
       0., 0., 0., 0., 0., 0., 0., 0., 0., 0., 0., 0., 0., 0., 0., 0.,
       0., 0., 0., 0., 0., 0., 0., 0., 0., 0., 0., 0., 0., 0., 0., 0.,
       0., 0., 0., 0., 0., 0., 0., 0., 0., 0., 0., 0., 0., 0., 0., 0.,
       0., 0., 0., 0., 0., 0., 0., 0., 0., 0., 0., 0., 0., 0., 0., 0.,
       0., 0., 0., 0. ]
   oob_error: 2.3474178403755869e-03
   var_importance: [ 3.49744991e-03, 2.93535972e-03, 3.62235866e-03,
       4.14281245e-03, 3.51826800e-03, 4.57999390e-03, 4.30935761e-03,
       3.41417710e-03, 2.91454140e-03, 2.97699589e-03, 2.91454140e-03,
       3.10190488e-03, 3.12272296e-03, 4.82981186e-03, 3.49744991e-03,
       2.91454140e-03, 2.91454140e-03, 3.01863230e-03, 3.01863230e-03,
       3.68481316e-03, 3.83054023e-03, 3.62235866e-03, 3.39335902e-03,
       3.22681386e-03, 2.97699589e-03, 2.91454140e-03, 2.93535972e-03,
       2.91454140e-03, 4.70490288e-03, 3.10190488e-03, 2.93535972e-03,
       3.08108679e-03, 2.91454140e-03, 2.91454140e-03, 3.01863230e-03,
       3.33090452e-03, 4.08035796e-03, 3.70563124e-03, 3.47663159e-03,
       3.89299472e-03, 4.47590323e-03, 2.91454140e-03, 2.97699589e-03,
       8.49380624e-03, 9.03507881e-03, 4.16363077e-03, 2.99781421e-03,
       2.91454140e-03, 2.91454140e-03, 2.93535972e-03, 2.99781421e-03,
       3.43499542e-03, 2.91454140e-03, 5.53762866e-03, 5.45435632e-03,
       4.03872179e-03, 3.83054023e-03, 4.26772144e-03, 3.03945038e-03,
       3.80972214e-03, 5.93317393e-03, 3.35172284e-03, 2.91454140e-03,
       2.91454140e-03, 2.91454140e-03, 2.95617781e-03, 2.91454140e-03,
       3.95544898e-03, 3.83054023e-03, 5.07962937e-03, 3.12272296e-03,
       4.49672109e-03, 6.51608221e-03, 3.28926835e-03, 9.40980576e-03,
       5.53762866e-03, 4.01790347e-03, 3.10190488e-03, 2.93535972e-03,
       2.91454140e-03, 3.01863230e-03, 3.22681386e-03, 2.95617781e-03,
       3.45581351e-03, 5.14208386e-03, 6.80753635e-03, 3.49744991e-03,
       3.64317698e-03, 6.34953706e-03, 3.31008644e-03, 3.70563124e-03,
       2.89372331e-03, 2.99781421e-03, 3.03945038e-03, 2.91454140e-03,
       2.97699589e-03, 2.91454140e-03, 2.91454140e-03, 2.91454140e-03,
       3.12272296e-03, 2.91454140e-03, 2.95617781e-03, 3.01863230e-03,
       2.91454140e-03, 5.14208386e-03, 3.37254093e-03, 4.78817523e-03,
       6.99489983e-03, 5.26699284e-03, 3.06026847e-03, 3.10190488e-03,
       2.91454140e-03, 2.93535972e-03, 3.06026847e-03, 3.78890405e-03,
       3.10190488e-03, 3.28926835e-03, 3.18517745e-03, 3.45581351e-03,
       3.95544898e-03, 4.72572073e-03, 3.14354128e-03, 2.95617781e-03,
       9.13916901e-03, 3.35172284e-03, 3.70563124e-03, 2.91454140e-03,
       2.91454140e-03, 3.20599577e-03, 3.06026847e-03, 3.41417710e-03,
       2.91454140e-03, 8.57707951e-03, 4.68408456e-03, 9.84698627e-03,
       4.64244839e-03, 3.31008644e-03, 4.10117628e-03, 2.95617781e-03,
       3.16435937e-03, 3.45581351e-03, 3.43499542e-03, 2.93535972e-03,
       2.91454140e-03, 2.91454140e-03, 2.91454140e-03, 4.12199460e-03,
       3.85135831e-03, 3.64317698e-03, 2.91454140e-03, 4.10117628e-03,
       3.12272296e-03, 3.28926835e-03, 3.37254093e-03, 3.33090452e-03,
       4.62163007e-03, 4.26772144e-03, 4.60081175e-03, 3.24763195e-03,
       2.91454140e-03, 2.91454140e-03, 2.91454140e-03, 3.16435937e-03,
       4.20526695e-03, 3.06026847e-03, 3.45581351e-03, 3.14354128e-03,
       2.91454140e-03, 3.49744991e-03, 2.91454140e-03, 5.78744663e-03,
       6.51608221e-03, 1.54678877e-02, 3.33090452e-03, 2.97699589e-03,
       2.91454140e-03, 3.45581351e-03, 3.03945038e-03, 4.78817523e-03,
       2.91454140e-03, 4.93390253e-03, 3.51826800e-03, 4.39263042e-03,
       4.99635702e-03, 4.55917558e-03, 3.33090452e-03, 3.24763195e-03,
       2.91454140e-03, 2.91454140e-03, 3.55990417e-03, 5.18372003e-03,
       2.91454140e-03, 2.91454140e-03, 3.12272296e-03, 3.24763195e-03,
       6.18299143e-03, 6.03726460e-03, 6.68262737e-03, 6.14135526e-03,
       3.24763195e-03, 3.16435937e-03, 3.16435937e-03, 4.66326624e-03,
       4.18444909e-03, 1.38440719e-02, 8.09826143e-03, 3.28926835e-03,
       3.43499542e-03, 2.91454140e-03, 3.18517745e-03, 3.70563124e-03,
       6.93244534e-03, 3.26845003e-03, 5.84990112e-03, 3.12272296e-03,
       4.78817523e-03, 3.64317698e-03, 5.01717487e-03, 4.01790347e-03,
       4.89226589e-03, 8.16071592e-03, 2.91454140e-03, 2.91454140e-03,
       2.91454140e-03, 3.18517745e-03, 3.37254093e-03, 3.76808573e-03,
       3.14354128e-03, 5.95399179e-03, 2.89372331e-03, 3.64317698e-03,
       3.06026847e-03, 2.99781421e-03, 2.93535972e-03, 2.97699589e-03,
       3.68481316e-03, 4.95472038e-03, 7.09899049e-03, 3.10190488e-03,
       3.03945038e-03, 3.16435937e-03, 3.12272296e-03, 3.70563124e-03,
       3.74726765e-03, 7.95253459e-03, 2.93535972e-03, 3.72644956e-03,
       3.47663159e-03, 3.12272296e-03, 3.24763195e-03, 3.01863230e-03,
       3.03945038e-03, 4.66326624e-03, 3.03945038e-03, 2.93535972e-03,
       2.91454140e-03 ]
   ntrees: 9
   trees:
      -
         nodes:
            -
               depth: 0
               value: 49.
               norm_class_idx: 0
               splits:
                  - { var:237, quality:4.9457751464843750e+02,
                      le:5.0000000000000000e-01 }
            -
               depth: 1
               value: 49.
               norm_class_idx: 0
               splits:
                  - { var:204, quality:4.8906781005859375e+02,
                      le:5.0000000000000000e-01 }
            -
               depth: 2
               value: 49.
               norm_class_idx: 0
               splits:
                  - { var:123, quality:5.4739257812500000e+02,
                      le:5.0000000000000000e-01 }
            -
               depth: 3
               value: 49.
               norm_class_idx: 0
               splits:
                  - { var:4, quality:3.9168505859375000e+02,
                      le:5.0000000000000000e-01 }
            -
               depth: 4
               value: 49.
               norm_class_idx: 0
               splits:
                  - { var:44, quality:3.8477005004882812e+02,
                      le:5.0000000000000000e-01 }
            -
               depth: 5
               value: 49.
               norm_class_idx: 0
               splits:
                  - { var:54, quality:374., le:5.0000000000000000e-01 }
            -
               depth: 6
               value: 50.
               norm_class_idx: 1
            -
               depth: 6
               value: 49.
               norm_class_idx: 0
            -
               depth: 5
               value: 55.
               norm_class_idx: 6
            -
               depth: 4
               value: 55.
               norm_class_idx: 6
               splits:
                  - { var:254, quality:6.9310348510742188e+01,
                      le:5.0000000000000000e-01 }
            -
               depth: 5
               value: 55.
               norm_class_idx: 6
               splits:
                  - { var:38, quality:6.5699623107910156e+01,
                      le:5.0000000000000000e-01 }
            -
               depth: 6
               value: 55.
               norm_class_idx: 6
               splits:
                  - { var:69, quality:37., le:5.0000000000000000e-01 }
            -
               depth: 7
               value: 55.
               norm_class_idx: 6
            -
               depth: 7
               value: 49.
               norm_class_idx: 0
            -
               depth: 6
               value: 55.
               norm_class_idx: 6
               splits:
                  - { var:184, quality:4.8230770111083984e+01,
                      le:5.0000000000000000e-01 }
            -
               depth: 7
               value: 50.
               norm_class_idx: 1
            -
               depth: 7
               value: 55.
               norm_class_idx: 6
               splits:
                  - { var:87, quality:65., le:5.0000000000000000e-01 }
            -
               depth: 8
               value: 55.
               norm_class_idx: 6
            -
               depth: 8
               value: 49.
               norm_class_idx: 0
            -
               depth: 5
               value: 55.
               norm_class_idx: 6
            -
               depth: 3
               value: 50.
               norm_class_idx: 1
               splits:
                  - { var:69, quality:3.0367794799804688e+02,
                      le:5.0000000000000000e-01 }
            -
               depth: 4
               value: 50.
               norm_class_idx: 1
               splits:
                  - { var:178, quality:2.5308966064453125e+02,
                      le:5.0000000000000000e-01 }
            -
               depth: 5
               value: 50.
               norm_class_idx: 1
               splits:
                  - { var:244, quality:2.5101409912109375e+02,
                      le:5.0000000000000000e-01 }
            -
               depth: 6
               value: 50.
               norm_class_idx: 1
               splits:
                  - { var:56, quality:8.2547370910644531e+01,
                      le:5.0000000000000000e-01 }
            -
               depth: 7
               value: 50.
               norm_class_idx: 1
               splits:
                  - { var:152, quality:6.7945457458496094e+01,
                      le:5.0000000000000000e-01 }
            -
               depth: 8
               value: 50.
               norm_class_idx: 1
            -
               depth: 8
               value: 55.
               norm_class_idx: 6
            -
               depth: 7
               value: 49.
               norm_class_idx: 0
               splits:
                  - { var:103, quality:2.9612903594970703e+01,
                      le:5.0000000000000000e-01 }
            -
               depth: 8
               value: 49.
               norm_class_idx: 0
               splits:
                  - { var:75, quality:2.2724138259887695e+01,
                      le:5.0000000000000000e-01 }
            -
               depth: 9
               value: 49.
               norm_class_idx: 0
            -
               depth: 9
               value: 49.
               norm_class_idx: 0
            -
               depth: 8
               value: 49.
               norm_class_idx: 0
            -
               depth: 6
               value: 50.
               norm_class_idx: 1
               splits:
                  - { var:36, quality:2.1994717407226562e+02,
                      le:5.0000000000000000e-01 }
            -
               depth: 7
               value: 50.
               norm_class_idx: 1
               splits:
                  - { var:13, quality:1.0552482604980469e+02,
                      le:5.0000000000000000e-01 }
            -
               depth: 8
               value: 50.
               norm_class_idx: 1
            -
               depth: 8
               value: 50.
               norm_class_idx: 1
               splits:
                  - { var:35, quality:7.7535430908203125e+01,
                      le:5.0000000000000000e-01 }
            -
               depth: 9
               value: 50.
               norm_class_idx: 1
               splits:
                  - { var:125, quality:9.5626502990722656e+01,
                      le:5.0000000000000000e-01 }
            -
               depth: 10
               value: 55.
               norm_class_idx: 6
            -
               depth: 10
               value: 50.
               norm_class_idx: 1
            -
               depth: 9
               value: 50.
               norm_class_idx: 1
            -
               depth: 7
               value: 50.
               norm_class_idx: 1
               splits:
                  - { var:63, quality:1.2566666412353516e+02,
                      le:5.0000000000000000e-01 }
            -
               depth: 8
               value: 50.
               norm_class_idx: 1
            -
               depth: 8
               value: 50.
               norm_class_idx: 1
            -
               depth: 5
               value: 50.
               norm_class_idx: 1
            -
               depth: 4
               value: 49.
               norm_class_idx: 0
               splits:
                  - { var:91, quality:5.3060607910156250e+01,
                      le:5.0000000000000000e-01 }
            -
               depth: 5
               value: 49.
               norm_class_idx: 0
            -
               depth: 5
               value: 49.
               norm_class_idx: 0
               splits:
                  - { var:139, quality:33., le:5.0000000000000000e-01 }
            -
               depth: 6
               value: 50.
               norm_class_idx: 1
            -
               depth: 6
               value: 49.
               norm_class_idx: 0
            -
               depth: 2
               value: 53.
               norm_class_idx: 4
               splits:
                  - { var:190, quality:1.6073420715332031e+02,
                      le:5.0000000000000000e-01 }
            -
               depth: 3
               value: 53.
               norm_class_idx: 4
               splits:
                  - { var:107, quality:1.3630250549316406e+02,
                      le:5.0000000000000000e-01 }
            -
               depth: 4
               value: 53.
               norm_class_idx: 4
               splits:
                  - { var:166, quality:7.3858062744140625e+01,
                      le:5.0000000000000000e-01 }
            -
               depth: 5
               value: 53.
               norm_class_idx: 4
               splits:
                  - { var:240, quality:7.7625953674316406e+01,
                      le:5.0000000000000000e-01 }
            -
               depth: 6
               value: 53.
               norm_class_idx: 4
               splits:
                  - { var:150, quality:6.5055046081542969e+01,
                      le:5.0000000000000000e-01 }
            -
               depth: 7
               value: 53.
               norm_class_idx: 4
            -
               depth: 7
               value: 54.
               norm_class_idx: 5
               splits:
                  - { var:42, quality:6.5297630310058594e+01,
                      le:5.0000000000000000e-01 }
            -
               depth: 8
               value: 53.
               norm_class_idx: 4
            -
               depth: 8
               value: 54.
               norm_class_idx: 5
               splits:
                  - { var:221, quality:3.3427673339843750e+01,
                      le:5.0000000000000000e-01 }
            -
               depth: 9
               value: 54.
               norm_class_idx: 5
               splits:
                  - { var:227, quality:3.2975437164306641e+01,
                      le:5.0000000000000000e-01 }
            -
               depth: 10
               value: 54.
               norm_class_idx: 5
            -
               depth: 10
               value: 54.
               norm_class_idx: 5
            -
               depth: 9
               value: 54.
               norm_class_idx: 5
            -
               depth: 6
               value: 53.
               norm_class_idx: 4
            -
               depth: 5
               value: 54.
               norm_class_idx: 5
            -
               depth: 4
               value: 51.
               norm_class_idx: 2
               splits:
                  - { var:108, quality:9.5121513366699219e+01,
                      le:5.0000000000000000e-01 }
            -
               depth: 5
               value: 51.
               norm_class_idx: 2
               splits:
                  - { var:46, quality:7.2809524536132812e+01,
                      le:5.0000000000000000e-01 }
            -
               depth: 6
               value: 51.
               norm_class_idx: 2
               splits:
                  - { var:117, quality:7.7500000000000000e+01,
                      le:5.0000000000000000e-01 }
            -
               depth: 7
               value: 51.
               norm_class_idx: 2
            -
               depth: 7
               value: 53.
               norm_class_idx: 4
               splits:
                  - { var:147, quality:5.7886177062988281e+01,
                      le:5.0000000000000000e-01 }
            -
               depth: 8
               value: 53.
               norm_class_idx: 4
               splits:
                  - { var:116, quality:6.8461540222167969e+01,
                      le:5.0000000000000000e-01 }
            -
               depth: 9
               value: 51.
               norm_class_idx: 2
            -
               depth: 9
               value: 53.
               norm_class_idx: 4
            -
               depth: 8
               value: 54.
               norm_class_idx: 5
            -
               depth: 6
               value: 51.
               norm_class_idx: 2
            -
               depth: 5
               value: 54.
               norm_class_idx: 5
               splits:
                  - { var:55, quality:39., le:5.0000000000000000e-01 }
            -
               depth: 6
               value: 49.
               norm_class_idx: 0
            -
               depth: 6
               value: 54.
               norm_class_idx: 5
            -
               depth: 3
               value: 52.
               norm_class_idx: 3
               splits:
                  - { var:73, quality:53., le:5.0000000000000000e-01 }
            -
               depth: 4
               value: 50.
               norm_class_idx: 1
            -
               depth: 4
               value: 52.
               norm_class_idx: 3
            -
               depth: 1
               value: 53.
               norm_class_idx: 4
               splits:
                  - { var:75, quality:3.5775445556640625e+02,
                      le:5.0000000000000000e-01 }
            -
               depth: 2
               value: 53.
               norm_class_idx: 4
               splits:
                  - { var:85, quality:1.9839274597167969e+02,
                      le:5.0000000000000000e-01 }
            -
               depth: 3
               value: 54.
               norm_class_idx: 5
            -
               depth: 3
               value: 53.
               norm_class_idx: 4
               splits:
                  - { var:134, quality:1.8414056396484375e+02,
                      le:5.0000000000000000e-01 }
            -
               depth: 4
               value: 53.
               norm_class_idx: 4
            -
               depth: 4
               value: 53.
               norm_class_idx: 4
               splits:
                  - { var:165, quality:2.2450000000000000e+02,
                      le:5.0000000000000000e-01 }
            -
               depth: 5
               value: 53.
               norm_class_idx: 4
            -
               depth: 5
               value: 54.
               norm_class_idx: 5
               splits:
                  - { var:61, quality:9.6349235534667969e+01,
                      le:5.0000000000000000e-01 }
            -
               depth: 6
               value: 54.
               norm_class_idx: 5
               splits:
                  - { var:140, quality:9.1500000000000000e+01,
                      le:5.0000000000000000e-01 }
            -
               depth: 7
               value: 53.
               norm_class_idx: 4
            -
               depth: 7
               value: 54.
               norm_class_idx: 5
               splits:
                  - { var:213, quality:9.5555557250976562e+01,
                      le:5.0000000000000000e-01 }
            -
               depth: 8
               value: 53.
               norm_class_idx: 4
            -
               depth: 8
               value: 54.
               norm_class_idx: 5
            -
               depth: 6
               value: 53.
               norm_class_idx: 4
               splits:
                  - { var:117, quality:11., le:5.0000000000000000e-01 }
            -
               depth: 7
               value: 54.
               norm_class_idx: 5
            -
               depth: 7
               value: 53.
               norm_class_idx: 4
            -
               depth: 2
               value: 52.
               norm_class_idx: 3
               splits:
                  - { var:215, quality:2.7036483764648438e+02,
                      le:5.0000000000000000e-01 }
            -
               depth: 3
               value: 51.
               norm_class_idx: 2
               splits:
                  - { var:22, quality:1.7290908813476562e+02,
                      le:5.0000000000000000e-01 }
            -
               depth: 4
               value: 51.
               norm_class_idx: 2
               splits:
                  - { var:241, quality:7.3721794128417969e+01,
                      le:5.0000000000000000e-01 }
            -
               depth: 5
               value: 51.
               norm_class_idx: 2
               splits:
                  - { var:147, quality:1.1742028808593750e+02,
                      le:5.0000000000000000e-01 }
            -
               depth: 6
               value: 51.
               norm_class_idx: 2
            -
               depth: 6
               value: 52.
               norm_class_idx: 3
               splits:
                  - { var:124, quality:6.2538459777832031e+01,
                      le:5.0000000000000000e-01 }
            -
               depth: 7
               value: 51.
               norm_class_idx: 2
               splits:
                  - { var:85, quality:13., le:5.0000000000000000e-01 }
            -
               depth: 8
               value: 51.
               norm_class_idx: 2
            -
               depth: 8
               value: 52.
               norm_class_idx: 3
            -
               depth: 7
               value: 52.
               norm_class_idx: 3
            -
               depth: 5
               value: 53.
               norm_class_idx: 4
               splits:
                  - { var:73, quality:1.6088888168334961e+01,
                      le:5.0000000000000000e-01 }
            -
               depth: 6
               value: 50.
               norm_class_idx: 1
            -
               depth: 6
               value: 53.
               norm_class_idx: 4
               splits:
                  - { var:28, quality:15., le:5.0000000000000000e-01 }
            -
               depth: 7
               value: 53.
               norm_class_idx: 4
            -
               depth: 7
               value: 52.
               norm_class_idx: 3
            -
               depth: 4
               value: 51.
               norm_class_idx: 2
               splits:
                  - { var:59, quality:1.1413072204589844e+02,
                      le:5.0000000000000000e-01 }
            -
               depth: 5
               value: 53.
               norm_class_idx: 4
            -
               depth: 5
               value: 51.
               norm_class_idx: 2
               splits:
                  - { var:194, quality:1.2107827758789062e+02,
                      le:5.0000000000000000e-01 }
            -
               depth: 6
               value: 51.
               norm_class_idx: 2
               splits:
                  - { var:170, quality:146., le:5.0000000000000000e-01 }
            -
               depth: 7
               value: 50.
               norm_class_idx: 1
            -
               depth: 7
               value: 51.
               norm_class_idx: 2
            -
               depth: 6
               value: 50.
               norm_class_idx: 1
            -
               depth: 3
               value: 52.
               norm_class_idx: 3
               splits:
                  - { var:170, quality:189., le:5.0000000000000000e-01 }
            -
               depth: 4
               value: 50.
               norm_class_idx: 1
            -
               depth: 4
               value: 52.
               norm_class_idx: 3
      -
         nodes:
            -
               depth: 0
               value: 49.
               norm_class_idx: 0
               splits:
                  - { var:44, quality:5.4026812744140625e+02,
                      le:5.0000000000000000e-01 }
            -
               depth: 1
               value: 49.
               norm_class_idx: 0
               splits:
                  - { var:134, quality:5.1324938964843750e+02,
                      le:5.0000000000000000e-01 }
            -
               depth: 2
               value: 49.
               norm_class_idx: 0
               splits:
                  - { var:190, quality:4.3858956909179688e+02,
                      le:5.0000000000000000e-01 }
            -
               depth: 3
               value: 49.
               norm_class_idx: 0
               splits:
                  - { var:130, quality:4.0671112060546875e+02,
                      le:5.0000000000000000e-01 }
            -
               depth: 4
               value: 49.
               norm_class_idx: 0
               splits:
                  - { var:185, quality:5.0930435180664062e+02,
                      le:5.0000000000000000e-01 }
            -
               depth: 5
               value: 50.
               norm_class_idx: 1
               splits:
                  - { var:165, quality:7.1741935729980469e+01,
                      le:5.0000000000000000e-01 }
            -
               depth: 6
               value: 50.
               norm_class_idx: 1
               splits:
                  - { var:196, quality:2.2111110687255859e+01,
                      le:5.0000000000000000e-01 }
            -
               depth: 7
               value: 49.
               norm_class_idx: 0
            -
               depth: 7
               value: 50.
               norm_class_idx: 1
            -
               depth: 6
               value: 50.
               norm_class_idx: 1
            -
               depth: 5
               value: 49.
               norm_class_idx: 0
            -
               depth: 4
               value: 52.
               norm_class_idx: 3
            -
               depth: 3
               value: 53.
               norm_class_idx: 4
               splits:
                  - { var:243, quality:6.5262702941894531e+01,
                      le:5.0000000000000000e-01 }
            -
               depth: 4
               value: 52.
               norm_class_idx: 3
               splits:
                  - { var:2, quality:26., le:5.0000000000000000e-01 }
            -
               depth: 5
               value: 52.
               norm_class_idx: 3
            -
               depth: 5
               value: 53.
               norm_class_idx: 4
            -
               depth: 4
               value: 53.
               norm_class_idx: 4
               splits:
                  - { var:195, quality:53., le:5.0000000000000000e-01 }
            -
               depth: 5
               value: 53.
               norm_class_idx: 4
            -
               depth: 5
               value: 52.
               norm_class_idx: 3
            -
               depth: 2
               value: 53.
               norm_class_idx: 4
               splits:
                  - { var:195, quality:2.3296650695800781e+02,
                      le:5.0000000000000000e-01 }
            -
               depth: 3
               value: 53.
               norm_class_idx: 4
               splits:
                  - { var:53, quality:1.9694200134277344e+02,
                      le:5.0000000000000000e-01 }
            -
               depth: 4
               value: 51.
               norm_class_idx: 2
               splits:
                  - { var:76, quality:3.0105262756347656e+01,
                      le:5.0000000000000000e-01 }
            -
               depth: 5
               value: 54.
               norm_class_idx: 5
               splits:
                  - { var:70, quality:3.1777778625488281e+01,
                      le:5.0000000000000000e-01 }
            -
               depth: 6
               value: 51.
               norm_class_idx: 2
               splits:
                  - { var:250, quality:18., le:5.0000000000000000e-01 }
            -
               depth: 7
               value: 55.
               norm_class_idx: 6
            -
               depth: 7
               value: 51.
               norm_class_idx: 2
            -
               depth: 6
               value: 54.
               norm_class_idx: 5
            -
               depth: 5
               value: 51.
               norm_class_idx: 2
            -
               depth: 4
               value: 53.
               norm_class_idx: 4
               splits:
                  - { var:230, quality:2.3024630737304688e+02,
                      le:5.0000000000000000e-01 }
            -
               depth: 5
               value: 53.
               norm_class_idx: 4
               splits:
                  - { var:154, quality:203., le:5.0000000000000000e-01 }
            -
               depth: 6
               value: 49.
               norm_class_idx: 0
            -
               depth: 6
               value: 53.
               norm_class_idx: 4
            -
               depth: 5
               value: 54.
               norm_class_idx: 5
               splits:
                  - { var:154, quality:3.7085105895996094e+01,
                      le:5.0000000000000000e-01 }
            -
               depth: 6
               value: 54.
               norm_class_idx: 5
            -
               depth: 6
               value: 54.
               norm_class_idx: 5
            -
               depth: 3
               value: 54.
               norm_class_idx: 5
               splits:
                  - { var:136, quality:87., le:5.0000000000000000e-01 }
            -
               depth: 4
               value: 52.
               norm_class_idx: 3
            -
               depth: 4
               value: 54.
               norm_class_idx: 5
            -
               depth: 1
               value: 50.
               norm_class_idx: 1
               splits:
                  - { var:171, quality:4.0205249023437500e+02,
                      le:5.0000000000000000e-01 }
            -
               depth: 2
               value: 55.
               norm_class_idx: 6
               splits:
                  - { var:205, quality:2.2666716003417969e+02,
                      le:5.0000000000000000e-01 }
            -
               depth: 3
               value: 55.
               norm_class_idx: 6
               splits:
                  - { var:61, quality:2.6074523925781250e+02,
                      le:5.0000000000000000e-01 }
            -
               depth: 4
               value: 55.
               norm_class_idx: 6
               splits:
                  - { var:235, quality:1.4205194091796875e+02,
                      le:5.0000000000000000e-01 }
            -
               depth: 5
               value: 55.
               norm_class_idx: 6
               splits:
                  - { var:104, quality:1.3792857360839844e+02,
                      le:5.0000000000000000e-01 }
            -
               depth: 6
               value: 55.
               norm_class_idx: 6
               splits:
                  - { var:93, quality:6.9542167663574219e+01,
                      le:5.0000000000000000e-01 }
            -
               depth: 7
               value: 55.
               norm_class_idx: 6
               splits:
                  - { var:55, quality:7.1740737915039062e+01,
                      le:5.0000000000000000e-01 }
            -
               depth: 8
               value: 55.
               norm_class_idx: 6
               splits:
                  - { var:12, quality:1.8529411315917969e+01,
                      le:5.0000000000000000e-01 }
            -
               depth: 9
               value: 55.
               norm_class_idx: 6
               splits:
                  - { var:19, quality:17., le:5.0000000000000000e-01 }
            -
               depth: 10
               value: 50.
               norm_class_idx: 1
            -
               depth: 10
               value: 55.
               norm_class_idx: 6
            -
               depth: 9
               value: 55.
               norm_class_idx: 6
            -
               depth: 8
               value: 55.
               norm_class_idx: 6
            -
               depth: 7
               value: 50.
               norm_class_idx: 1
            -
               depth: 6
               value: 55.
               norm_class_idx: 6
            -
               depth: 5
               value: 50.
               norm_class_idx: 1
            -
               depth: 4
               value: 50.
               norm_class_idx: 1
               splits:
                  - { var:184, quality:1.5637280273437500e+02,
                      le:5.0000000000000000e-01 }
            -
               depth: 5
               value: 50.
               norm_class_idx: 1
               splits:
                  - { var:178, quality:7.0105262756347656e+01,
                      le:5.0000000000000000e-01 }
            -
               depth: 6
               value: 50.
               norm_class_idx: 1
            -
               depth: 6
               value: 50.
               norm_class_idx: 1
            -
               depth: 5
               value: 55.
               norm_class_idx: 6
            -
               depth: 3
               value: 50.
               norm_class_idx: 1
               splits:
                  - { var:50, quality:1.8285715103149414e+01,
                      le:5.0000000000000000e-01 }
            -
               depth: 4
               value: 50.
               norm_class_idx: 1
            -
               depth: 4
               value: 50.
               norm_class_idx: 1
            -
               depth: 2
               value: 51.
               norm_class_idx: 2
               splits:
                  - { var:198, quality:3.6154687500000000e+02,
                      le:5.0000000000000000e-01 }
            -
               depth: 3
               value: 51.
               norm_class_idx: 2
               splits:
                  - { var:76, quality:3.3099566650390625e+02,
                      le:5.0000000000000000e-01 }
            -
               depth: 4
               value: 53.
               norm_class_idx: 4
               splits:
                  - { var:45, quality:1.0221343994140625e+02,
                      le:5.0000000000000000e-01 }
            -
               depth: 5
               value: 53.
               norm_class_idx: 4
               splits:
                  - { var:12, quality:1.4454545021057129e+01,
                      le:5.0000000000000000e-01 }
            -
               depth: 6
               value: 51.
               norm_class_idx: 2
            -
               depth: 6
               value: 53.
               norm_class_idx: 4
               splits:
                  - { var:157, quality:14., le:5.0000000000000000e-01 }
            -
               depth: 7
               value: 49.
               norm_class_idx: 0
            -
               depth: 7
               value: 53.
               norm_class_idx: 4
               splits:
                  - { var:202, quality:1.4222222328186035e+01,
                      le:5.0000000000000000e-01 }
            -
               depth: 8
               value: 54.
               norm_class_idx: 5
            -
               depth: 8
               value: 53.
               norm_class_idx: 4
            -
               depth: 5
               value: 53.
               norm_class_idx: 4
               splits:
                  - { var:176, quality:1.3115789794921875e+02,
                      le:5.0000000000000000e-01 }
            -
               depth: 6
               value: 53.
               norm_class_idx: 4
               splits:
                  - { var:56, quality:1.0819779968261719e+02,
                      le:5.0000000000000000e-01 }
            -
               depth: 7
               value: 53.
               norm_class_idx: 4
               splits:
                  - { var:120, quality:8.5239997863769531e+01,
                      le:5.0000000000000000e-01 }
            -
               depth: 8
               value: 53.
               norm_class_idx: 4
            -
               depth: 8
               value: 53.
               norm_class_idx: 4
               splits:
                  - { var:241, quality:6.9367347717285156e+01,
                      le:5.0000000000000000e-01 }
            -
               depth: 9
               value: 53.
               norm_class_idx: 4
               splits:
                  - { var:213, quality:4.5571430206298828e+01,
                      le:5.0000000000000000e-01 }
            -
               depth: 10
               value: 53.
               norm_class_idx: 4
            -
               depth: 10
               value: 53.
               norm_class_idx: 4
            -
               depth: 9
               value: 53.
               norm_class_idx: 4
            -
               depth: 7
               value: 53.
               norm_class_idx: 4
            -
               depth: 6
               value: 54.
               norm_class_idx: 5
            -
               depth: 4
               value: 51.
               norm_class_idx: 2
               splits:
                  - { var:90, quality:2.5137562561035156e+02,
                      le:5.0000000000000000e-01 }
            -
               depth: 5
               value: 53.
               norm_class_idx: 4
               splits:
                  - { var:95, quality:9.8000001907348633e+00,
                      le:5.0000000000000000e-01 }
            -
               depth: 6
               value: 53.
               norm_class_idx: 4
            -
               depth: 6
               value: 50.
               norm_class_idx: 1
            -
               depth: 5
               value: 51.
               norm_class_idx: 2
               splits:
                  - { var:244, quality:2.4677914428710938e+02,
                      le:5.0000000000000000e-01 }
            -
               depth: 6
               value: 51.
               norm_class_idx: 2
               splits:
                  - { var:186, quality:1.0152083587646484e+02,
                      le:5.0000000000000000e-01 }
            -
               depth: 7
               value: 51.
               norm_class_idx: 2
            -
               depth: 7
               value: 51.
               norm_class_idx: 2
               splits:
                  - { var:56, quality:8.4336563110351562e+01,
                      le:5.0000000000000000e-01 }
            -
               depth: 8
               value: 51.
               norm_class_idx: 2
               splits:
                  - { var:184, quality:79., le:5.0000000000000000e-01 }
            -
               depth: 9
               value: 51.
               norm_class_idx: 2
            -
               depth: 9
               value: 49.
               norm_class_idx: 0
            -
               depth: 8
               value: 49.
               norm_class_idx: 0
               splits:
                  - { var:132, quality:17., le:5.0000000000000000e-01 }
            -
               depth: 9
               value: 49.
               norm_class_idx: 0
            -
               depth: 9
               value: 51.
               norm_class_idx: 2
            -
               depth: 6
               value: 51.
               norm_class_idx: 2
               splits:
                  - { var:193, quality:150., le:5.0000000000000000e-01 }
            -
               depth: 7
               value: 51.
               norm_class_idx: 2
            -
               depth: 7
               value: 52.
               norm_class_idx: 3
            -
               depth: 3
               value: 52.
               norm_class_idx: 3
               splits:
                  - { var:72, quality:3.1578689575195312e+02,
                      le:5.0000000000000000e-01 }
            -
               depth: 4
               value: 50.
               norm_class_idx: 1
               splits:
                  - { var:86, quality:1.7521247863769531e+02,
                      le:5.0000000000000000e-01 }
            -
               depth: 5
               value: 50.
               norm_class_idx: 1
               splits:
                  - { var:31, quality:1.2733333587646484e+02,
                      le:5.0000000000000000e-01 }
            -
               depth: 6
               value: 50.
               norm_class_idx: 1
            -
               depth: 6
               value: 50.
               norm_class_idx: 1
            -
               depth: 5
               value: 54.
               norm_class_idx: 5
               splits:
                  - { var:152, quality:4.9727272033691406e+01,
                      le:5.0000000000000000e-01 }
            -
               depth: 6
               value: 54.
               norm_class_idx: 5
               splits:
                  - { var:254, quality:7.8000001907348633e+00,
                      le:5.0000000000000000e-01 }
            -
               depth: 7
               value: 54.
               norm_class_idx: 5
            -
               depth: 7
               value: 54.
               norm_class_idx: 5
            -
               depth: 6
               value: 54.
               norm_class_idx: 5
            -
               depth: 4
               value: 52.
               norm_class_idx: 3
      -
         nodes:
            -
               depth: 0
               value: 49.
               norm_class_idx: 0
               splits:
                  - { var:172, quality:6.3675250244140625e+02,
                      le:5.0000000000000000e-01 }
            -
               depth: 1
               value: 49.
               norm_class_idx: 0
               splits:
                  - { var:244, quality:5.6753717041015625e+02,
                      le:5.0000000000000000e-01 }
            -
               depth: 2
               value: 49.
               norm_class_idx: 0
               splits:
                  - { var:13, quality:4.0714285278320312e+02,
                      le:5.0000000000000000e-01 }
            -
               depth: 3
               value: 49.
               norm_class_idx: 0
               splits:
                  - { var:40, quality:3.8806277465820312e+02,
                      le:5.0000000000000000e-01 }
            -
               depth: 4
               value: 50.
               norm_class_idx: 1
               splits:
                  - { var:136, quality:40., le:5.0000000000000000e-01 }
            -
               depth: 5
               value: 50.
               norm_class_idx: 1
            -
               depth: 5
               value: 55.
               norm_class_idx: 6
            -
               depth: 4
               value: 49.
               norm_class_idx: 0
               splits:
                  - { var:104, quality:4.2284561157226562e+02,
                      le:5.0000000000000000e-01 }
            -
               depth: 5
               value: 55.
               norm_class_idx: 6
               splits:
                  - { var:117, quality:3.7087718963623047e+01,
                      le:5.0000000000000000e-01 }
            -
               depth: 6
               value: 55.
               norm_class_idx: 6
               splits:
                  - { var:209, quality:3.3142856597900391e+01,
                      le:5.0000000000000000e-01 }
            -
               depth: 7
               value: 55.
               norm_class_idx: 6
            -
               depth: 7
               value: 50.
               norm_class_idx: 1
            -
               depth: 6
               value: 52.
               norm_class_idx: 3
            -
               depth: 5
               value: 49.
               norm_class_idx: 0
               splits:
                  - { var:133, quality:4.3073977661132812e+02,
                      le:5.0000000000000000e-01 }
            -
               depth: 6
               value: 49.
               norm_class_idx: 0
               splits:
                  - { var:114, quality:4.4164285278320312e+02,
                      le:5.0000000000000000e-01 }
            -
               depth: 7
               value: 49.
               norm_class_idx: 0
               splits:
                  - { var:217, quality:4.2823529052734375e+02,
                      le:5.0000000000000000e-01 }
            -
               depth: 8
               value: 49.
               norm_class_idx: 0
               splits:
                  - { var:245, quality:5.3931034088134766e+01,
                      le:5.0000000000000000e-01 }
            -
               depth: 9
               value: 49.
               norm_class_idx: 0
            -
               depth: 9
               value: 49.
               norm_class_idx: 0
               splits:
                  - { var:229, quality:1.8090909957885742e+01,
                      le:5.0000000000000000e-01 }
            -
               depth: 10
               value: 49.
               norm_class_idx: 0
            -
               depth: 10
               value: 55.
               norm_class_idx: 6
            -
               depth: 8
               value: 49.
               norm_class_idx: 0
            -
               depth: 7
               value: 52.
               norm_class_idx: 3
            -
               depth: 6
               value: 50.
               norm_class_idx: 1
            -
               depth: 3
               value: 55.
               norm_class_idx: 6
               splits:
                  - { var:181, quality:8.0800003051757812e+01,
                      le:5.0000000000000000e-01 }
            -
               depth: 4
               value: 55.
               norm_class_idx: 6
            -
               depth: 4
               value: 52.
               norm_class_idx: 3
            -
               depth: 2
               value: 50.
               norm_class_idx: 1
               splits:
                  - { var:195, quality:2.7549295043945312e+02,
                      le:5.0000000000000000e-01 }
            -
               depth: 3
               value: 50.
               norm_class_idx: 1
               splits:
                  - { var:199, quality:1.1974383544921875e+02,
                      le:5.0000000000000000e-01 }
            -
               depth: 4
               value: 50.
               norm_class_idx: 1
               splits:
                  - { var:204, quality:6.4058822631835938e+01,
                      le:5.0000000000000000e-01 }
            -
               depth: 5
               value: 50.
               norm_class_idx: 1
            -
               depth: 5
               value: 51.
               norm_class_idx: 2
               splits:
                  - { var:101, quality:17., le:5.0000000000000000e-01 }
            -
               depth: 6
               value: 51.
               norm_class_idx: 2
            -
               depth: 6
               value: 54.
               norm_class_idx: 5
            -
               depth: 4
               value: 55.
               norm_class_idx: 6
               splits:
                  - { var:40, quality:9.4913726806640625e+01,
                      le:5.0000000000000000e-01 }
            -
               depth: 5
               value: 55.
               norm_class_idx: 6
               splits:
                  - { var:177, quality:7.2280700683593750e+01,
                      le:5.0000000000000000e-01 }
            -
               depth: 6
               value: 55.
               norm_class_idx: 6
               splits:
                  - { var:216, quality:7.7026313781738281e+01,
                      le:5.0000000000000000e-01 }
            -
               depth: 7
               value: 50.
               norm_class_idx: 1
               splits:
                  - { var:20, quality:2.9785715103149414e+01,
                      le:5.0000000000000000e-01 }
            -
               depth: 8
               value: 55.
               norm_class_idx: 6
            -
               depth: 8
               value: 50.
               norm_class_idx: 1
               splits:
                  - { var:31, quality:2.6083333969116211e+01,
                      le:5.0000000000000000e-01 }
            -
               depth: 9
               value: 50.
               norm_class_idx: 1
               splits:
                  - { var:171, quality:2.2166666030883789e+01,
                      le:5.0000000000000000e-01 }
            -
               depth: 10
               value: 50.
               norm_class_idx: 1
            -
               depth: 10
               value: 50.
               norm_class_idx: 1
            -
               depth: 9
               value: 55.
               norm_class_idx: 6
            -
               depth: 7
               value: 55.
               norm_class_idx: 6
               splits:
                  - { var:124, quality:76., le:5.0000000000000000e-01 }
            -
               depth: 8
               value: 55.
               norm_class_idx: 6
            -
               depth: 8
               value: 50.
               norm_class_idx: 1
            -
               depth: 6
               value: 55.
               norm_class_idx: 6
            -
               depth: 5
               value: 50.
               norm_class_idx: 1
               splits:
                  - { var:166, quality:2.7502645492553711e+01,
                      le:5.0000000000000000e-01 }
            -
               depth: 6
               value: 55.
               norm_class_idx: 6
            -
               depth: 6
               value: 50.
               norm_class_idx: 1
               splits:
                  - { var:92, quality:27., le:5.0000000000000000e-01 }
            -
               depth: 7
               value: 55.
               norm_class_idx: 6
            -
               depth: 7
               value: 50.
               norm_class_idx: 1
            -
               depth: 3
               value: 50.
               norm_class_idx: 1
               splits:
                  - { var:119, quality:1.8869841003417969e+02,
                      le:5.0000000000000000e-01 }
            -
               depth: 4
               value: 50.
               norm_class_idx: 1
            -
               depth: 4
               value: 50.
               norm_class_idx: 1
               splits:
                  - { var:253, quality:5.9363636016845703e+01,
                      le:5.0000000000000000e-01 }
            -
               depth: 5
               value: 55.
               norm_class_idx: 6
               splits:
                  - { var:177, quality:2.0095237731933594e+01,
                      le:5.0000000000000000e-01 }
            -
               depth: 6
               value: 55.
               norm_class_idx: 6
               splits:
                  - { var:216, quality:1.9333333969116211e+01,
                      le:5.0000000000000000e-01 }
            -
               depth: 7
               value: 55.
               norm_class_idx: 6
            -
               depth: 7
               value: 55.
               norm_class_idx: 6
            -
               depth: 6
               value: 50.
               norm_class_idx: 1
            -
               depth: 5
               value: 50.
               norm_class_idx: 1
            -
               depth: 1
               value: 53.
               norm_class_idx: 4
               splits:
                  - { var:197, quality:4.8318051147460938e+02,
                      le:5.0000000000000000e-01 }
            -
               depth: 2
               value: 53.
               norm_class_idx: 4
               splits:
                  - { var:128, quality:3.5842248535156250e+02,
                      le:5.0000000000000000e-01 }
            -
               depth: 3
               value: 53.
               norm_class_idx: 4
               splits:
                  - { var:106, quality:4.1145925903320312e+02,
                      le:5.0000000000000000e-01 }
            -
               depth: 4
               value: 53.
               norm_class_idx: 4
               splits:
                  - { var:158, quality:1.8292707824707031e+02,
                      le:5.0000000000000000e-01 }
            -
               depth: 5
               value: 53.
               norm_class_idx: 4
               splits:
                  - { var:35, quality:1.7241999816894531e+02,
                      le:5.0000000000000000e-01 }
            -
               depth: 6
               value: 53.
               norm_class_idx: 4
               splits:
                  - { var:195, quality:100., le:5.0000000000000000e-01 }
            -
               depth: 7
               value: 53.
               norm_class_idx: 4
            -
               depth: 7
               value: 54.
               norm_class_idx: 5
            -
               depth: 6
               value: 53.
               norm_class_idx: 4
            -
               depth: 5
               value: 50.
               norm_class_idx: 1
               splits:
                  - { var:202, quality:14., le:5.0000000000000000e-01 }
            -
               depth: 6
               value: 50.
               norm_class_idx: 1
               splits:
                  - { var:239, quality:8.9090909957885742e+00,
                      le:5.0000000000000000e-01 }
            -
               depth: 7
               value: 53.
               norm_class_idx: 4
               splits:
                  - { var:99, quality:11., le:5.0000000000000000e-01 }
            -
               depth: 8
               value: 50.
               norm_class_idx: 1
            -
               depth: 8
               value: 53.
               norm_class_idx: 4
            -
               depth: 7
               value: 50.
               norm_class_idx: 1
            -
               depth: 6
               value: 50.
               norm_class_idx: 1
            -
               depth: 4
               value: 51.
               norm_class_idx: 2
               splits:
                  - { var:157, quality:3.2490325927734375e+02,
                      le:5.0000000000000000e-01 }
            -
               depth: 5
               value: 51.
               norm_class_idx: 2
               splits:
                  - { var:7, quality:1.8674913024902344e+02,
                      le:5.0000000000000000e-01 }
            -
               depth: 6
               value: 51.
               norm_class_idx: 2
               splits:
                  - { var:37, quality:1.1545454978942871e+01,
                      le:5.0000000000000000e-01 }
            -
               depth: 7
               value: 52.
               norm_class_idx: 3
               splits:
                  - { var:104, quality:11., le:5.0000000000000000e-01 }
            -
               depth: 8
               value: 52.
               norm_class_idx: 3
            -
               depth: 8
               value: 49.
               norm_class_idx: 0
            -
               depth: 7
               value: 51.
               norm_class_idx: 2
            -
               depth: 6
               value: 51.
               norm_class_idx: 2
               splits:
                  - { var:56, quality:1.8157142639160156e+02,
                      le:5.0000000000000000e-01 }
            -
               depth: 7
               value: 51.
               norm_class_idx: 2
            -
               depth: 7
               value: 51.
               norm_class_idx: 2
               splits:
                  - { var:37, quality:14., le:5.0000000000000000e-01 }
            -
               depth: 8
               value: 49.
               norm_class_idx: 0
            -
               depth: 8
               value: 51.
               norm_class_idx: 2
            -
               depth: 5
               value: 53.
               norm_class_idx: 4
               splits:
                  - { var:35, quality:1.9484252929687500e+02,
                      le:5.0000000000000000e-01 }
            -
               depth: 6
               value: 51.
               norm_class_idx: 2
               splits:
                  - { var:68, quality:1.6829090881347656e+02,
                      le:5.0000000000000000e-01 }
            -
               depth: 7
               value: 51.
               norm_class_idx: 2
               splits:
                  - { var:194, quality:110., le:5.0000000000000000e-01 }
            -
               depth: 8
               value: 51.
               norm_class_idx: 2
            -
               depth: 8
               value: 52.
               norm_class_idx: 3
            -
               depth: 7
               value: 53.
               norm_class_idx: 4
            -
               depth: 6
               value: 53.
               norm_class_idx: 4
               splits:
                  - { var:77, quality:1.0750000000000000e+02,
                      le:5.0000000000000000e-01 }
            -
               depth: 7
               value: 53.
               norm_class_idx: 4
            -
               depth: 7
               value: 53.
               norm_class_idx: 4
               splits:
                  - { var:50, quality:12., le:5.0000000000000000e-01 }
            -
               depth: 8
               value: 51.
               norm_class_idx: 2
            -
               depth: 8
               value: 53.
               norm_class_idx: 4
            -
               depth: 3
               value: 54.
               norm_class_idx: 5
            -
               depth: 2
               value: 52.
               norm_class_idx: 3
               splits:
                  - { var:150, quality:3.4693554687500000e+02,
                      le:5.0000000000000000e-01 }
            -
               depth: 3
               value: 52.
               norm_class_idx: 3
               splits:
                  - { var:102, quality:2.1475999450683594e+02,
                      le:5.0000000000000000e-01 }
            -
               depth: 4
               value: 50.
               norm_class_idx: 1
               splits:
                  - { var:21, quality:3.9674419403076172e+01,
                      le:5.0000000000000000e-01 }
            -
               depth: 5
               value: 52.
               norm_class_idx: 3
            -
               depth: 5
               value: 50.
               norm_class_idx: 1
               splits:
                  - { var:207, quality:43., le:5.0000000000000000e-01 }
            -
               depth: 6
               value: 50.
               norm_class_idx: 1
            -
               depth: 6
               value: 52.
               norm_class_idx: 3
            -
               depth: 4
               value: 52.
               norm_class_idx: 3
            -
               depth: 3
               value: 54.
               norm_class_idx: 5
               splits:
                  - { var:207, quality:1.8081571960449219e+02,
                      le:5.0000000000000000e-01 }
            -
               depth: 4
               value: 54.
               norm_class_idx: 5
               splits:
                  - { var:17, quality:1.7590908813476562e+02,
                      le:5.0000000000000000e-01 }
            -
               depth: 5
               value: 54.
               norm_class_idx: 5
            -
               depth: 5
               value: 54.
               norm_class_idx: 5
               splits:
                  - { var:37, quality:4.6282051086425781e+01,
                      le:5.0000000000000000e-01 }
            -
               depth: 6
               value: 54.
               norm_class_idx: 5
               splits:
                  - { var:23, quality:3.1380952835083008e+01,
                      le:5.0000000000000000e-01 }
            -
               depth: 7
               value: 54.
               norm_class_idx: 5
               splits:
                  - { var:174, quality:21., le:5.0000000000000000e-01 }
            -
               depth: 8
               value: 54.
               norm_class_idx: 5
            -
               depth: 8
               value: 52.
               norm_class_idx: 3
            -
               depth: 7
               value: 54.
               norm_class_idx: 5
            -
               depth: 6
               value: 54.
               norm_class_idx: 5
            -
               depth: 4
               value: 52.
               norm_class_idx: 3
               splits:
                  - { var:235, quality:11., le:5.0000000000000000e-01 }
            -
               depth: 5
               value: 54.
               norm_class_idx: 5
            -
               depth: 5
               value: 52.
               norm_class_idx: 3
      -
         nodes:
            -
               depth: 0
               value: 49.
               norm_class_idx: 0
               splits:
                  - { var:132, quality:5.6119281005859375e+02,
                      le:5.0000000000000000e-01 }
            -
               depth: 1
               value: 49.
               norm_class_idx: 0
               splits:
                  - { var:204, quality:5.4464959716796875e+02,
                      le:5.0000000000000000e-01 }
            -
               depth: 2
               value: 49.
               norm_class_idx: 0
               splits:
                  - { var:213, quality:6.9432208251953125e+02,
                      le:5.0000000000000000e-01 }
            -
               depth: 3
               value: 49.
               norm_class_idx: 0
               splits:
                  - { var:214, quality:4.4605700683593750e+02,
                      le:5.0000000000000000e-01 }
            -
               depth: 4
               value: 49.
               norm_class_idx: 0
               splits:
                  - { var:225, quality:4.0559902954101562e+02,
                      le:5.0000000000000000e-01 }
            -
               depth: 5
               value: 49.
               norm_class_idx: 0
               splits:
                  - { var:107, quality:4.0109173583984375e+02,
                      le:5.0000000000000000e-01 }
            -
               depth: 6
               value: 49.
               norm_class_idx: 0
            -
               depth: 6
               value: 49.
               norm_class_idx: 0
               splits:
                  - { var:246, quality:8.9444442749023438e+01,
                      le:5.0000000000000000e-01 }
            -
               depth: 7
               value: 49.
               norm_class_idx: 0
               splits:
                  - { var:155, quality:8.7055458068847656e+01,
                      le:5.0000000000000000e-01 }
            -
               depth: 8
               value: 55.
               norm_class_idx: 6
            -
               depth: 8
               value: 49.
               norm_class_idx: 0
            -
               depth: 7
               value: 55.
               norm_class_idx: 6
            -
               depth: 5
               value: 55.
               norm_class_idx: 6
               splits:
                  - { var:124, quality:14., le:5.0000000000000000e-01 }
            -
               depth: 6
               value: 55.
               norm_class_idx: 6
            -
               depth: 6
               value: 50.
               norm_class_idx: 1
            -
               depth: 4
               value: 49.
               norm_class_idx: 0
               splits:
                  - { var:38, quality:9.0311477661132812e+01,
                      le:5.0000000000000000e-01 }
            -
               depth: 5
               value: 55.
               norm_class_idx: 6
            -
               depth: 5
               value: 49.
               norm_class_idx: 0
               splits:
                  - { var:89, quality:82., le:5.0000000000000000e-01 }
            -
               depth: 6
               value: 50.
               norm_class_idx: 1
            -
               depth: 6
               value: 49.
               norm_class_idx: 0
               splits:
                  - { var:14, quality:7.3294120788574219e+01,
                      le:5.0000000000000000e-01 }
            -
               depth: 7
               value: 49.
               norm_class_idx: 0
            -
               depth: 7
               value: 55.
               norm_class_idx: 6
            -
               depth: 3
               value: 50.
               norm_class_idx: 1
               splits:
                  - { var:36, quality:3.0099108886718750e+02,
                      le:5.0000000000000000e-01 }
            -
               depth: 4
               value: 50.
               norm_class_idx: 1
               splits:
                  - { var:141, quality:1.7418803405761719e+02,
                      le:5.0000000000000000e-01 }
            -
               depth: 5
               value: 50.
               norm_class_idx: 1
               splits:
                  - { var:252, quality:1.7877697753906250e+02,
                      le:5.0000000000000000e-01 }
            -
               depth: 6
               value: 55.
               norm_class_idx: 6
               splits:
                  - { var:138, quality:8.5045799255371094e+01,
                      le:5.0000000000000000e-01 }
            -
               depth: 7
               value: 55.
               norm_class_idx: 6
            -
               depth: 7
               value: 55.
               norm_class_idx: 6
               splits:
                  - { var:210, quality:1.2332989501953125e+02,
                      le:5.0000000000000000e-01 }
            -
               depth: 8
               value: 55.
               norm_class_idx: 6
               splits:
                  - { var:73, quality:9.1285713195800781e+01,
                      le:5.0000000000000000e-01 }
            -
               depth: 9
               value: 55.
               norm_class_idx: 6
               splits:
                  - { var:45, quality:1.0666666984558105e+01,
                      le:5.0000000000000000e-01 }
            -
               depth: 10
               value: 50.
               norm_class_idx: 1
            -
               depth: 10
               value: 55.
               norm_class_idx: 6
            -
               depth: 9
               value: 55.
               norm_class_idx: 6
            -
               depth: 8
               value: 50.
               norm_class_idx: 1
            -
               depth: 6
               value: 50.
               norm_class_idx: 1
            -
               depth: 5
               value: 50.
               norm_class_idx: 1
            -
               depth: 4
               value: 50.
               norm_class_idx: 1
               splits:
                  - { var:123, quality:1.7135121154785156e+02,
                      le:5.0000000000000000e-01 }
            -
               depth: 5
               value: 55.
               norm_class_idx: 6
               splits:
                  - { var:200, quality:47., le:5.0000000000000000e-01 }
            -
               depth: 6
               value: 50.
               norm_class_idx: 1
            -
               depth: 6
               value: 55.
               norm_class_idx: 6
            -
               depth: 5
               value: 50.
               norm_class_idx: 1
               splits:
                  - { var:110, quality:1.4615686035156250e+02,
                      le:5.0000000000000000e-01 }
            -
               depth: 6
               value: 50.
               norm_class_idx: 1
            -
               depth: 6
               value: 50.
               norm_class_idx: 1
               splits:
                  - { var:51, quality:4.7533332824707031e+01,
                      le:5.0000000000000000e-01 }
            -
               depth: 7
               value: 50.
               norm_class_idx: 1
               splits:
                  - { var:56, quality:15., le:5.0000000000000000e-01 }
            -
               depth: 8
               value: 50.
               norm_class_idx: 1
            -
               depth: 8
               value: 55.
               norm_class_idx: 6
            -
               depth: 7
               value: 50.
               norm_class_idx: 1
            -
               depth: 2
               value: 51.
               norm_class_idx: 2
               splits:
                  - { var:107, quality:1.8040591430664062e+02,
                      le:5.0000000000000000e-01 }
            -
               depth: 3
               value: 53.
               norm_class_idx: 4
               splits:
                  - { var:170, quality:2.7861110687255859e+01,
                      le:5.0000000000000000e-01 }
            -
               depth: 4
               value: 54.
               norm_class_idx: 5
               splits:
                  - { var:67, quality:18., le:5.0000000000000000e-01 }
            -
               depth: 5
               value: 54.
               norm_class_idx: 5
            -
               depth: 5
               value: 50.
               norm_class_idx: 1
            -
               depth: 4
               value: 53.
               norm_class_idx: 4
            -
               depth: 3
               value: 51.
               norm_class_idx: 2
               splits:
                  - { var:80, quality:2.0634883117675781e+02,
                      le:5.0000000000000000e-01 }
            -
               depth: 4
               value: 51.
               norm_class_idx: 2
               splits:
                  - { var:114, quality:1.9892988586425781e+02,
                      le:5.0000000000000000e-01 }
            -
               depth: 5
               value: 51.
               norm_class_idx: 2
               splits:
                  - { var:217, quality:1.9441378784179688e+02,
                      le:5.0000000000000000e-01 }
            -
               depth: 6
               value: 51.
               norm_class_idx: 2
            -
               depth: 6
               value: 51.
               norm_class_idx: 2
               splits:
                  - { var:23, quality:6.3501754760742188e+01,
                      le:5.0000000000000000e-01 }
            -
               depth: 7
               value: 52.
               norm_class_idx: 3
               splits:
                  - { var:36, quality:1.5913043022155762e+01,
                      le:5.0000000000000000e-01 }
            -
               depth: 8
               value: 52.
               norm_class_idx: 3
               splits:
                  - { var:226, quality:1.7545454025268555e+01,
                      le:5.0000000000000000e-01 }
            -
               depth: 9
               value: 49.
               norm_class_idx: 0
               splits:
                  - { var:77, quality:11., le:5.0000000000000000e-01 }
            -
               depth: 10
               value: 49.
               norm_class_idx: 0
            -
               depth: 10
               value: 51.
               norm_class_idx: 2
            -
               depth: 9
               value: 52.
               norm_class_idx: 3
            -
               depth: 8
               value: 53.
               norm_class_idx: 4
            -
               depth: 7
               value: 51.
               norm_class_idx: 2
               splits:
                  - { var:35, quality:57., le:5.0000000000000000e-01 }
            -
               depth: 8
               value: 51.
               norm_class_idx: 2
            -
               depth: 8
               value: 50.
               norm_class_idx: 1
            -
               depth: 5
               value: 53.
               norm_class_idx: 4
               splits:
                  - { var:158, quality:22., le:5.0000000000000000e-01 }
            -
               depth: 6
               value: 52.
               norm_class_idx: 3
            -
               depth: 6
               value: 53.
               norm_class_idx: 4
            -
               depth: 4
               value: 53.
               norm_class_idx: 4
            -
               depth: 1
               value: 53.
               norm_class_idx: 4
               splits:
                  - { var:84, quality:3.5278982543945312e+02,
                      le:5.0000000000000000e-01 }
            -
               depth: 2
               value: 52.
               norm_class_idx: 3
               splits:
                  - { var:197, quality:2.2220169067382812e+02,
                      le:5.0000000000000000e-01 }
            -
               depth: 3
               value: 51.
               norm_class_idx: 2
               splits:
                  - { var:184, quality:1.6434013366699219e+02,
                      le:5.0000000000000000e-01 }
            -
               depth: 4
               value: 51.
               norm_class_idx: 2
               splits:
                  - { var:185, quality:1.3754945373535156e+02,
                      le:5.0000000000000000e-01 }
            -
               depth: 5
               value: 51.
               norm_class_idx: 2
               splits:
                  - { var:39, quality:8.9333335876464844e+01,
                      le:5.0000000000000000e-01 }
            -
               depth: 6
               value: 51.
               norm_class_idx: 2
            -
               depth: 6
               value: 52.
               norm_class_idx: 3
            -
               depth: 5
               value: 51.
               norm_class_idx: 2
            -
               depth: 4
               value: 52.
               norm_class_idx: 3
            -
               depth: 3
               value: 52.
               norm_class_idx: 3
               splits:
                  - { var:206, quality:1.5596791076660156e+02,
                      le:5.0000000000000000e-01 }
            -
               depth: 4
               value: 54.
               norm_class_idx: 5
               splits:
                  - { var:60, quality:5.3900001525878906e+01,
                      le:5.0000000000000000e-01 }
            -
               depth: 5
               value: 54.
               norm_class_idx: 5
            -
               depth: 5
               value: 50.
               norm_class_idx: 1
               splits:
                  - { var:21, quality:1.8500000000000000e+01,
                      le:5.0000000000000000e-01 }
            -
               depth: 6
               value: 52.
               norm_class_idx: 3
            -
               depth: 6
               value: 50.
               norm_class_idx: 1
            -
               depth: 4
               value: 52.
               norm_class_idx: 3
               splits:
                  - { var:123, quality:131., le:5.0000000000000000e-01 }
            -
               depth: 5
               value: 50.
               norm_class_idx: 1
            -
               depth: 5
               value: 52.
               norm_class_idx: 3
            -
               depth: 2
               value: 53.
               norm_class_idx: 4
               splits:
                  - { var:216, quality:2.7306478881835938e+02,
                      le:5.0000000000000000e-01 }
            -
               depth: 3
               value: 53.
               norm_class_idx: 4
               splits:
                  - { var:196, quality:4.2830862426757812e+02,
                      le:5.0000000000000000e-01 }
            -
               depth: 4
               value: 53.
               norm_class_idx: 4
               splits:
                  - { var:87, quality:2.7113223266601562e+02,
                      le:5.0000000000000000e-01 }
            -
               depth: 5
               value: 53.
               norm_class_idx: 4
               splits:
                  - { var:206, quality:2.3419276428222656e+02,
                      le:5.0000000000000000e-01 }
            -
               depth: 6
               value: 53.
               norm_class_idx: 4
               splits:
                  - { var:50, quality:1.5824806213378906e+02,
                      le:5.0000000000000000e-01 }
            -
               depth: 7
               value: 53.
               norm_class_idx: 4
               splits:
                  - { var:150, quality:1.2150793457031250e+02,
                      le:5.0000000000000000e-01 }
            -
               depth: 8
               value: 53.
               norm_class_idx: 4
            -
               depth: 8
               value: 53.
               norm_class_idx: 4
               splits:
                  - { var:164, quality:6.1400001525878906e+01,
                      le:5.0000000000000000e-01 }
            -
               depth: 9
               value: 53.
               norm_class_idx: 4
            -
               depth: 9
               value: 54.
               norm_class_idx: 5
            -
               depth: 7
               value: 53.
               norm_class_idx: 4
            -
               depth: 6
               value: 53.
               norm_class_idx: 4
            -
               depth: 5
               value: 53.
               norm_class_idx: 4
            -
               depth: 4
               value: 54.
               norm_class_idx: 5
               splits:
                  - { var:107, quality:1.5759259033203125e+02,
                      le:5.0000000000000000e-01 }
            -
               depth: 5
               value: 54.
               norm_class_idx: 5
            -
               depth: 5
               value: 54.
               norm_class_idx: 5
               splits:
                  - { var:59, quality:54., le:5.0000000000000000e-01 }
            -
               depth: 6
               value: 54.
               norm_class_idx: 5
            -
               depth: 6
               value: 52.
               norm_class_idx: 3
            -
               depth: 3
               value: 52.
               norm_class_idx: 3
               splits:
                  - { var:72, quality:52., le:5.0000000000000000e-01 }
            -
               depth: 4
               value: 53.
               norm_class_idx: 4
            -
               depth: 4
               value: 52.
               norm_class_idx: 3
      -
         nodes:
            -
               depth: 0
               value: 49.
               norm_class_idx: 0
               splits:
                  - { var:123, quality:4.5787399291992188e+02,
                      le:5.0000000000000000e-01 }
            -
               depth: 1
               value: 49.
               norm_class_idx: 0
               splits:
                  - { var:220, quality:4.0147882080078125e+02,
                      le:5.0000000000000000e-01 }
            -
               depth: 2
               value: 49.
               norm_class_idx: 0
               splits:
                  - { var:182, quality:3.6608145141601562e+02,
                      le:5.0000000000000000e-01 }
            -
               depth: 3
               value: 49.
               norm_class_idx: 0
               splits:
                  - { var:57, quality:3.0792218017578125e+02,
                      le:5.0000000000000000e-01 }
            -
               depth: 4
               value: 54.
               norm_class_idx: 5
            -
               depth: 4
               value: 49.
               norm_class_idx: 0
               splits:
                  - { var:14, quality:3.1460116577148438e+02,
                      le:5.0000000000000000e-01 }
            -
               depth: 5
               value: 49.
               norm_class_idx: 0
               splits:
                  - { var:60, quality:3.3900616455078125e+02,
                      le:5.0000000000000000e-01 }
            -
               depth: 6
               value: 49.
               norm_class_idx: 0
               splits:
                  - { var:244, quality:325., le:5.0000000000000000e-01 }
            -
               depth: 7
               value: 49.
               norm_class_idx: 0
            -
               depth: 7
               value: 51.
               norm_class_idx: 2
            -
               depth: 6
               value: 55.
               norm_class_idx: 6
            -
               depth: 5
               value: 55.
               norm_class_idx: 6
            -
               depth: 3
               value: 55.
               norm_class_idx: 6
               splits:
                  - { var:119, quality:8.0132247924804688e+01,
                      le:5.0000000000000000e-01 }
            -
               depth: 4
               value: 55.
               norm_class_idx: 6
               splits:
                  - { var:195, quality:6.3076923370361328e+01,
                      le:5.0000000000000000e-01 }
            -
               depth: 5
               value: 55.
               norm_class_idx: 6
               splits:
                  - { var:60, quality:5.4523811340332031e+01,
                      le:5.0000000000000000e-01 }
            -
               depth: 6
               value: 55.
               norm_class_idx: 6
               splits:
                  - { var:49, quality:1.9181818008422852e+01,
                      le:5.0000000000000000e-01 }
            -
               depth: 7
               value: 50.
               norm_class_idx: 1
               splits:
                  - { var:234, quality:11., le:5.0000000000000000e-01 }
            -
               depth: 8
               value: 55.
               norm_class_idx: 6
            -
               depth: 8
               value: 50.
               norm_class_idx: 1
            -
               depth: 7
               value: 55.
               norm_class_idx: 6
            -
               depth: 6
               value: 55.
               norm_class_idx: 6
            -
               depth: 5
               value: 50.
               norm_class_idx: 1
            -
               depth: 4
               value: 49.
               norm_class_idx: 0
               splits:
                  - { var:241, quality:4.0862068176269531e+01,
                      le:5.0000000000000000e-01 }
            -
               depth: 5
               value: 55.
               norm_class_idx: 6
               splits:
                  - { var:6, quality:4.3247310638427734e+01,
                      le:5.0000000000000000e-01 }
            -
               depth: 6
               value: 49.
               norm_class_idx: 0
               splits:
                  - { var:43, quality:1.7769229888916016e+01,
                      le:5.0000000000000000e-01 }
            -
               depth: 7
               value: 49.
               norm_class_idx: 0
            -
               depth: 7
               value: 49.
               norm_class_idx: 0
               splits:
                  - { var:226, quality:18., le:5.0000000000000000e-01 }
            -
               depth: 8
               value: 49.
               norm_class_idx: 0
               splits:
                  - { var:154, quality:25., le:5.0000000000000000e-01 }
            -
               depth: 9
               value: 49.
               norm_class_idx: 0
            -
               depth: 9
               value: 55.
               norm_class_idx: 6
            -
               depth: 8
               value: 55.
               norm_class_idx: 6
            -
               depth: 6
               value: 55.
               norm_class_idx: 6
               splits:
                  - { var:197, quality:2.7250000000000000e+01,
                      le:5.0000000000000000e-01 }
            -
               depth: 7
               value: 55.
               norm_class_idx: 6
            -
               depth: 7
               value: 55.
               norm_class_idx: 6
            -
               depth: 5
               value: 49.
               norm_class_idx: 0
            -
               depth: 2
               value: 53.
               norm_class_idx: 4
               splits:
                  - { var:113, quality:1.3609429931640625e+02,
                      le:5.0000000000000000e-01 }
            -
               depth: 3
               value: 53.
               norm_class_idx: 4
               splits:
                  - { var:110, quality:1.3195269775390625e+02,
                      le:5.0000000000000000e-01 }
            -
               depth: 4
               value: 53.
               norm_class_idx: 4
               splits:
                  - { var:107, quality:2.1001042175292969e+02,
                      le:5.0000000000000000e-01 }
            -
               depth: 5
               value: 53.
               norm_class_idx: 4
               splits:
                  - { var:69, quality:1.3354669189453125e+02,
                      le:5.0000000000000000e-01 }
            -
               depth: 6
               value: 51.
               norm_class_idx: 2
               splits:
                  - { var:168, quality:2.1333333969116211e+01,
                      le:5.0000000000000000e-01 }
            -
               depth: 7
               value: 50.
               norm_class_idx: 1
            -
               depth: 7
               value: 51.
               norm_class_idx: 2
            -
               depth: 6
               value: 53.
               norm_class_idx: 4
               splits:
                  - { var:236, quality:1.4296063232421875e+02,
                      le:5.0000000000000000e-01 }
            -
               depth: 7
               value: 54.
               norm_class_idx: 5
               splits:
                  - { var:61, quality:38., le:5.0000000000000000e-01 }
            -
               depth: 8
               value: 54.
               norm_class_idx: 5
            -
               depth: 8
               value: 53.
               norm_class_idx: 4
            -
               depth: 7
               value: 53.
               norm_class_idx: 4
               splits:
                  - { var:30, quality:1.2179364776611328e+02,
                      le:5.0000000000000000e-01 }
            -
               depth: 8
               value: 53.
               norm_class_idx: 4
               splits:
                  - { var:21, quality:6.1033897399902344e+01,
                      le:5.0000000000000000e-01 }
            -
               depth: 9
               value: 54.
               norm_class_idx: 5
            -
               depth: 9
               value: 53.
               norm_class_idx: 4
               splits:
                  - { var:213, quality:5.7064517974853516e+01,
                      le:5.0000000000000000e-01 }
            -
               depth: 10
               value: 53.
               norm_class_idx: 4
            -
               depth: 10
               value: 53.
               norm_class_idx: 4
            -
               depth: 8
               value: 53.
               norm_class_idx: 4
            -
               depth: 5
               value: 51.
               norm_class_idx: 2
            -
               depth: 4
               value: 50.
               norm_class_idx: 1
            -
               depth: 3
               value: 54.
               norm_class_idx: 5
               splits:
                  - { var:85, quality:2.9399999618530273e+01,
                      le:5.0000000000000000e-01 }
            -
               depth: 4
               value: 54.
               norm_class_idx: 5
            -
               depth: 4
               value: 53.
               norm_class_idx: 4
               splits:
                  - { var:255, quality:1.8153846740722656e+01,
                      le:5.0000000000000000e-01 }
            -
               depth: 5
               value: 53.
               norm_class_idx: 4
               splits:
                  - { var:62, quality:1.1181818008422852e+01,
                      le:5.0000000000000000e-01 }
            -
               depth: 6
               value: 53.
               norm_class_idx: 4
               splits:
                  - { var:139, quality:9.5000000000000000e+00,
                      le:5.0000000000000000e-01 }
            -
               depth: 7
               value: 53.
               norm_class_idx: 4
            -
               depth: 7
               value: 53.
               norm_class_idx: 4
            -
               depth: 6
               value: 53.
               norm_class_idx: 4
            -
               depth: 5
               value: 54.
               norm_class_idx: 5
            -
               depth: 1
               value: 50.
               norm_class_idx: 1
               splits:
                  - { var:205, quality:4.3843005371093750e+02,
                      le:5.0000000000000000e-01 }
            -
               depth: 2
               value: 50.
               norm_class_idx: 1
               splits:
                  - { var:202, quality:3.3740554809570312e+02,
                      le:5.0000000000000000e-01 }
            -
               depth: 3
               value: 50.
               norm_class_idx: 1
               splits:
                  - { var:209, quality:2.9678048706054688e+02,
                      le:5.0000000000000000e-01 }
            -
               depth: 4
               value: 50.
               norm_class_idx: 1
               splits:
                  - { var:2, quality:2.3085176086425781e+02,
                      le:5.0000000000000000e-01 }
            -
               depth: 5
               value: 50.
               norm_class_idx: 1
               splits:
                  - { var:140, quality:1.6838000488281250e+02,
                      le:5.0000000000000000e-01 }
            -
               depth: 6
               value: 50.
               norm_class_idx: 1
            -
               depth: 6
               value: 50.
               norm_class_idx: 1
            -
               depth: 5
               value: 50.
               norm_class_idx: 1
               splits:
                  - { var:109, quality:1.3638095092773438e+02,
                      le:5.0000000000000000e-01 }
            -
               depth: 6
               value: 55.
               norm_class_idx: 6
               splits:
                  - { var:244, quality:6.7076919555664062e+01,
                      le:5.0000000000000000e-01 }
            -
               depth: 7
               value: 55.
               norm_class_idx: 6
            -
               depth: 7
               value: 55.
               norm_class_idx: 6
               splits:
                  - { var:216, quality:5.6764705657958984e+01,
                      le:5.0000000000000000e-01 }
            -
               depth: 8
               value: 50.
               norm_class_idx: 1
               splits:
                  - { var:248, quality:1.1166666984558105e+01,
                      le:5.0000000000000000e-01 }
            -
               depth: 9
               value: 55.
               norm_class_idx: 6
               splits:
                  - { var:104, quality:12., le:5.0000000000000000e-01 }
            -
               depth: 10
               value: 50.
               norm_class_idx: 1
            -
               depth: 10
               value: 55.
               norm_class_idx: 6
            -
               depth: 9
               value: 50.
               norm_class_idx: 1
            -
               depth: 8
               value: 55.
               norm_class_idx: 6
            -
               depth: 6
               value: 50.
               norm_class_idx: 1
            -
               depth: 4
               value: 50.
               norm_class_idx: 1
            -
               depth: 3
               value: 49.
               norm_class_idx: 0
               splits:
                  - { var:132, quality:9.7531341552734375e+01,
                      le:5.0000000000000000e-01 }
            -
               depth: 4
               value: 49.
               norm_class_idx: 0
               splits:
                  - { var:243, quality:8.5759651184082031e+01,
                      le:5.0000000000000000e-01 }
            -
               depth: 5
               value: 49.
               norm_class_idx: 0
               splits:
                  - { var:61, quality:9.0465278625488281e+01,
                      le:5.0000000000000000e-01 }
            -
               depth: 6
               value: 49.
               norm_class_idx: 0
            -
               depth: 6
               value: 55.
               norm_class_idx: 6
            -
               depth: 5
               value: 51.
               norm_class_idx: 2
               splits:
                  - { var:249, quality:20., le:5.0000000000000000e-01 }
            -
               depth: 6
               value: 50.
               norm_class_idx: 1
            -
               depth: 6
               value: 51.
               norm_class_idx: 2
            -
               depth: 4
               value: 53.
               norm_class_idx: 4
               splits:
                  - { var:249, quality:4.5777778625488281e+01,
                      le:5.0000000000000000e-01 }
            -
               depth: 5
               value: 50.
               norm_class_idx: 1
            -
